{"learner":{"attributes":{"scikit_learn":"{\"_estimator_type\": \"classifier\"}"},"feature_names":["Marital status","Application mode","Application order","Course","Daytime/evening attendance\t","Previous qualification","Previous qualification (grade)","Nacionality","Mother's qualification","Father's qualification","Mother's occupation","Father's occupation","Admission grade","Displaced","Educational special needs","Debtor","Tuition fees up to date","Gender","Scholarship holder","Age at enrollment","International","Curricular units 1st sem (credited)","Curricular units 1st sem (enrolled)","Curricular units 1st sem (evaluations)","Curricular units 1st sem (approved)","Curricular units 1st sem (grade)","Curricular units 1st sem (without evaluations)","Curricular units 2nd sem (credited)","Curricular units 2nd sem (enrolled)","Curricular units 2nd sem (evaluations)","Curricular units 2nd sem (approved)","Curricular units 2nd sem (grade)","Curricular units 2nd sem (without evaluations)","Unemployment rate","Inflation rate","GDP"],"feature_types":["float","float","float","float","float","float","float","float","float","float","float","float","float","float","float","float","float","float","float","float","float","float","float","float","float","float","float","float","float","float","float","float","float","float","float","float"],"gradient_booster":{"model":{"cats":{"enc":[],"feature_segments":[],"sorted_idx":[]},"gbtree_model_param":{"num_parallel_tree":"1","num_trees":"200"},"iteration_indptr":[0,1,2,3,4,5,6,7,8,9,10,11,12,13,14,15,16,17,18,19,20,21,22,23,24,25,26,27,28,29,30,31,32,33,34,35,36,37,38,39,40,41,42,43,44,45,46,47,48,49,50,51,52,53,54,55,56,57,58,59,60,61,62,63,64,65,66,67,68,69,70,71,72,73,74,75,76,77,78,79,80,81,82,83,84,85,86,87,88,89,90,91,92,93,94,95,96,97,98,99,100,101,102,103,104,105,106,107,108,109,110,111,112,113,114,115,116,117,118,119,120,121,122,123,124,125,126,127,128,129,130,131,132,133,134,135,136,137,138,139,140,141,142,143,144,145,146,147,148,149,150,151,152,153,154,155,156,157,158,159,160,161,162,163,164,165,166,167,168,169,170,171,172,173,174,175,176,177,178,179,180,181,182,183,184,185,186,187,188,189,190,191,192,193,194,195,196,197,198,199,200],"tree_info":[0,0,0,0,0,0,0,0,0,0,0,0,0,0,0,0,0,0,0,0,0,0,0,0,0,0,0,0,0,0,0,0,0,0,0,0,0,0,0,0,0,0,0,0,0,0,0,0,0,0,0,0,0,0,0,0,0,0,0,0,0,0,0,0,0,0,0,0,0,0,0,0,0,0,0,0,0,0,0,0,0,0,0,0,0,0,0,0,0,0,0,0,0,0,0,0,0,0,0,0,0,0,0,0,0,0,0,0,0,0,0,0,0,0,0,0,0,0,0,0,0,0,0,0,0,0,0,0,0,0,0,0,0,0,0,0,0,0,0,0,0,0,0,0,0,0,0,0,0,0,0,0,0,0,0,0,0,0,0,0,0,0,0,0,0,0,0,0,0,0,0,0,0,0,0,0,0,0,0,0,0,0,0,0,0,0,0,0,0,0,0,0,0,0,0,0,0,0,0,0],"trees":[{"base_weights":[2.1818671E-9,1.345079E0,-1.0586848E0,1.6062399E0,6.8793815E-1,1.1882718E0,-1.2485944E0,2.6663905E-1,1.8191997E0,1.7501602E0,3.5617024E-1,1.5945392E0,2.3305447E-1,-8.697227E-1,-1.4879019E0,7.9951656E-1,-4.9752882E-1,1.8392683E0,-3.6450812E-1,1.7999711E0,2.7753687E-3,2.3704639E-2,1.174217E0,1.7072643E0,1.7443661E-1,-4.419077E-1,9.4854736E-1,-9.665527E-1,1.269427E0,-1.5752424E0,-6.472487E-1,1.745737E-1,4.6700258E-2,-1.048214E-1,6.255667E-2,1.8552528E-1,8.1043616E-2,-1.2727273E-1,1.0273738E-1,1.8734346E-1,8.612349E-2,1.0465129E-2,-1.5294118E-1,1.309892E-1,-6.4188205E-2,1.783645E-1,2.1828724E-2,-1.1111112E-1,1.2261357E-1,4.437981E-2,-1.22082904E-1,-1.9476885E-2,1.1759875E-1,-1.0687727E-1,2.735124E-2,1.4531945E-1,2.1828724E-2,-1.6030395E-1,-3.5455957E-2,-9.348247E-2,4.006029E-2],"categories":[],"categories_nodes":[],"categories_segments":[],"categories_sizes":[],"default_left":[0,0,0,0,0,0,0,0,0,0,0,0,0,0,0,0,0,0,0,0,0,0,0,0,0,0,0,0,0,0,0,0,0,0,0,0,0,0,0,0,0,0,0,0,0,0,0,0,0,0,0,0,0,0,0,0,0,0,0,0,0],"id":0,"left_children":[1,3,5,7,9,11,13,15,17,19,21,23,25,27,29,31,33,35,37,39,-1,41,43,45,47,49,51,53,55,57,59,-1,-1,-1,-1,-1,-1,-1,-1,-1,-1,-1,-1,-1,-1,-1,-1,-1,-1,-1,-1,-1,-1,-1,-1,-1,-1,-1,-1,-1,-1],"loss_changes":[1.7130897E3,8.982507E1,2.8873572E2,1.0746619E2,5.309533E1,2.0185966E1,5.5027466E1,2.201078E1,1.4971436E1,3.0406418E0,3.1904106E1,5.624382E0,8.618585E0,5.153572E1,2.6830566E1,9.144054E0,1.4523206E1,3.8168945E0,6.1192245E0,7.99881E-1,0E0,1.0783552E1,9.195507E0,3.4957047E0,6.5465627E0,7.0398307E0,2.454846E0,2.9818436E1,1.7980099E0,1.10672E1,1.1643687E1,0E0,0E0,0E0,0E0,0E0,0E0,0E0,0E0,0E0,0E0,0E0,0E0,0E0,0E0,0E0,0E0,0E0,0E0,0E0,0E0,0E0,0E0,0E0,0E0,0E0,0E0,0E0,0E0,0E0,0E0],"parents":[2147483647,0,0,1,1,2,2,3,3,4,4,5,5,6,6,7,7,8,8,9,9,10,10,11,11,12,12,13,13,14,14,15,15,16,16,17,17,18,18,19,19,21,21,22,22,23,23,24,24,25,25,26,26,27,27,28,28,29,29,30,30],"right_children":[2,4,6,8,10,12,14,16,18,20,22,24,26,28,30,32,34,36,38,40,-1,42,44,46,48,50,52,54,56,58,60,-1,-1,-1,-1,-1,-1,-1,-1,-1,-1,-1,-1,-1,-1,-1,-1,-1,-1,-1,-1,-1,-1,-1,-1,-1,-1,-1,-1,-1,-1],"split_conditions":[-1.3804425E-1,-8.0635977E-1,3.6397803E-1,-2.1527178E0,3.6397803E-1,5.156976E-1,5.3027123E-1,6.331595E-1,4.3532267E0,2.2863386E0,2.4346669E-1,9.784937E-1,2.7511828E0,1.323199E0,1.6273822E0,3.6397803E-1,1.9995553E0,6.365634E-1,6.945968E0,7.4310946E-1,2.7753687E-3,3.3618846E0,1.7541919E0,5.6004965E-1,3.912604E-1,8.90924E-1,-8.168049E-1,2.7511828E0,1.3737026E0,1.1187023E0,4.8354405E-1,1.745737E-1,4.6700258E-2,-1.048214E-1,6.255667E-2,1.8552528E-1,8.1043616E-2,-1.2727273E-1,1.0273738E-1,1.8734346E-1,8.612349E-2,1.0465129E-2,-1.5294118E-1,1.309892E-1,-6.4188205E-2,1.783645E-1,2.1828724E-2,-1.1111112E-1,1.2261357E-1,4.437981E-2,-1.22082904E-1,-1.9476885E-2,1.1759875E-1,-1.0687727E-1,2.735124E-2,1.4531945E-1,2.1828724E-2,-1.6030395E-1,-3.5455957E-2,-9.348247E-2,4.006029E-2],"split_indices":[30,30,16,22,16,31,30,12,10,29,19,2,15,27,23,16,6,31,10,12,0,10,18,25,25,35,12,15,0,32,3,0,0,0,0,0,0,0,0,0,0,0,0,0,0,0,0,0,0,0,0,0,0,0,0,0,0,0,0,0,0],"split_type":[0,0,0,0,0,0,0,0,0,0,0,0,0,0,0,0,0,0,0,0,0,0,0,0,0,0,0,0,0,0,0,0,0,0,0,0,0,0,0,0,0,0,0,0,0,0,0,0,0,0,0,0,0,0,0,0,0,0,0,0,0],"sum_hessian":[1.201E3,5.288349E2,6.721651E2,3.7740305E2,1.5143184E2,5.1973396E1,6.201917E2,5.2076077E1,3.2532697E2,3.5023087E1,1.1640875E2,3.599494E1,1.5978452E1,2.418806E2,3.7831113E2,3.0653913E1,2.1422163E1,3.2252066E2,2.8062885E0,3.399494E1,1.0281442E0,8.350154E1,3.290721E1,3.316051E1,2.8344326E0,8.418865E0,7.5595865E0,2.319303E2,9.950308E0,3.4191382E2,3.6397316E1,6.8658752E0,2.3788038E1,1.4418865E1,7.0032983E0,3.167955E2,5.725154E0,1.75E0,1.0562885E0,3.0604221E1,3.3907213E0,8.025154E1,3.25E0,3.0879068E1,2.0281444E0,3.1354221E1,1.8062885E0,1.25E0,1.5844327E0,4.1407213E0,4.2781444E0,1.2781442E0,6.2814426E0,2.1439555E2,1.753474E1,8.144019E0,1.8062885E0,3.3399493E2,7.918865E0,2.864402E1,7.7532983E0],"tree_param":{"num_deleted":"0","num_feature":"36","num_nodes":"61","size_leaf_vector":"1"}},{"base_weights":[6.38268E-4,1.2196325E0,-9.57385E-1,1.390061E0,3.5562325E-1,1.080184E0,-1.1294175E0,2.4389723E-1,1.5431339E0,1.5657426E0,5.5589754E-2,1.451334E0,2.1146008E-1,-1.3080451E0,-6.74704E-1,7.281529E-1,-4.506484E-1,1.6984556E0,1.1103889E0,7.4360067E-1,1.709332E-1,-4.3581316E-1,6.1657643E-1,1.5541263E0,1.6042852E-1,8.898681E-1,-4.2851913E-1,-1.4454054E0,-9.3689734E-1,-2.2214768E-2,-1.031413E0,1.6043586E-1,4.2241517E-2,-9.527234E-2,5.7133306E-2,1.7103669E-1,4.3041366E-3,1.1757525E-1,-1.3112281E-1,-2.8048081E-2,1.2537146E-1,-8.614612E-2,2.1093348E-2,-6.8006806E-2,8.68824E-2,1.6532698E-1,4.275528E-2,-1.0512451E-1,1.1537112E-1,1.5676126E-1,-1.3272785E-2,-1.1253891E-1,3.700098E-2,-1.4776304E-1,4.4686522E-2,-6.0659867E-2,-1.4364663E-1,-3.4447443E-2,1.08627275E-1,-1.3928968E-1,-4.8040587E-2],"categories":[],"categories_nodes":[],"categories_segments":[],"categories_sizes":[],"default_left":[0,0,0,0,0,0,0,0,0,0,0,0,0,0,0,0,0,0,0,0,0,0,0,0,0,0,0,0,0,0,0,0,0,0,0,0,0,0,0,0,0,0,0,0,0,0,0,0,0,0,0,0,0,0,0,0,0,0,0,0,0],"id":1,"left_children":[1,3,5,7,9,11,13,15,17,19,21,23,25,27,29,31,33,35,37,39,-1,41,43,45,47,49,51,53,55,57,59,-1,-1,-1,-1,-1,-1,-1,-1,-1,-1,-1,-1,-1,-1,-1,-1,-1,-1,-1,-1,-1,-1,-1,-1,-1,-1,-1,-1,-1,-1],"loss_changes":[1.3973846E3,7.7043335E1,2.3607568E2,7.6726685E1,3.1899227E1,1.6677128E1,4.934088E1,1.8142157E1,2.4159912E1,7.9084396E-1,2.0015442E1,4.6254807E0,7.735561E0,2.1223694E1,4.104773E1,7.7846184E0,1.2025589E1,5.511902E0,1.8199097E1,2.6329312E0,0E0,1.0854521E1,1.1666219E1,3.0808792E0,5.8159223E0,6.1320057E0,5.6423316E0,2.0258667E1,1.9337433E1,2.3019438E1,2.2050568E1,0E0,0E0,0E0,0E0,0E0,0E0,0E0,0E0,0E0,0E0,0E0,0E0,0E0,0E0,0E0,0E0,0E0,0E0,0E0,0E0,0E0,0E0,0E0,0E0,0E0,0E0,0E0,0E0,0E0,0E0],"parents":[2147483647,0,0,1,1,2,2,3,3,4,4,5,5,6,6,7,7,8,8,9,9,10,10,11,11,12,12,13,13,14,14,15,15,16,16,17,17,18,18,19,19,21,21,22,22,23,23,24,24,25,25,26,26,27,27,28,28,29,29,30,30],"right_children":[2,4,6,8,10,12,14,16,18,20,22,24,26,28,30,32,34,36,38,40,-1,42,44,46,48,50,52,54,56,58,60,-1,-1,-1,-1,-1,-1,-1,-1,-1,-1,-1,-1,-1,-1,-1,-1,-1,-1,-1,-1,-1,-1,-1,-1,-1,-1,-1,-1,-1,-1],"split_conditions":[-1.3804425E-1,-4.72202E-1,3.6397803E-1,-2.1527178E0,3.6397803E-1,5.156976E-1,5.013502E-1,6.331595E-1,-1.1405175E0,1.2607858E-1,-3.40596E-2,9.784937E-1,8.90924E-1,3.9306524E-1,4.3261924E-1,3.6397803E-1,1.9995553E0,4.3532267E0,3.3618846E0,-2.9547223E-1,1.709332E-1,7.6672995E-1,-5.486067E-1,7.8382987E-1,3.912604E-1,1.7596716E-1,2.7511828E0,2.321136E0,5.749028E-1,3.6842173E-1,1.08731955E-1,1.6043586E-1,4.2241517E-2,-9.527234E-2,5.7133306E-2,1.7103669E-1,4.3041366E-3,1.1757525E-1,-1.3112281E-1,-2.8048081E-2,1.2537146E-1,-8.614612E-2,2.1093348E-2,-6.8006806E-2,8.68824E-2,1.6532698E-1,4.275528E-2,-1.0512451E-1,1.1537112E-1,1.5676126E-1,-1.3272785E-2,-1.1253891E-1,3.700098E-2,-1.4776304E-1,4.4686522E-2,-6.0659867E-2,-1.4364663E-1,-3.4447443E-2,1.08627275E-1,-1.3928968E-1,-4.8040587E-2],"split_indices":[30,30,16,22,16,31,29,12,30,3,1,2,35,3,24,16,6,10,10,19,0,35,24,6,25,6,15,21,31,28,19,0,0,0,0,0,0,0,0,0,0,0,0,0,0,0,0,0,0,0,0,0,0,0,0,0,0,0,0,0,0],"split_type":[0,0,0,0,0,0,0,0,0,0,0,0,0,0,0,0,0,0,0,0,0,0,0,0,0,0,0,0,0,0,0,0,0,0,0,0,0,0,0,0,0,0,0,0,0,0,0,0,0,0,0,0,0,0,0,0,0,0,0,0,0],"sum_hessian":[1.1945706E3,5.2556525E2,6.690053E2,4.3846735E2,8.709791E1,5.1675602E1,6.173297E2,5.1964684E1,3.865027E2,1.6466267E1,7.063164E1,3.5736877E1,1.59387245E1,4.4187054E2,1.7545914E2,3.0588903E1,2.137578E1,2.822663E2,1.0423637E2,3.3669524E0,1.3099315E1,3.7769836E1,3.28618E1,3.2912235E1,2.8246424E0,7.5475273E0,8.391197E0,3.203982E2,1.2147237E2,6.2392864E1,1.1306628E2,6.8138285E0,2.3775074E1,1.437933E1,6.9964514E0,2.8021683E2,2.0494676E0,1.0199774E2,2.2386203E0,1.2691749E0,2.0977774E0,2.2578255E1,1.5191583E1,5.0755544E0,2.7786247E1,2.9820389E1,3.0918481E0,1.2461498E0,1.5784925E0,4.2185984E0,3.3289285E0,4.2622433E0,4.128954E0,3.152487E2,5.149503E0,7.445765E1,4.701472E1,4.8873573E1,1.3519292E1,6.735238E1,4.5713898E1],"tree_param":{"num_deleted":"0","num_feature":"36","num_nodes":"61","size_leaf_vector":"1"}},{"base_weights":[1.0945998E-3,1.1171886E0,-8.7256926E-1,1.2754998E0,3.2458308E-1,9.926415E-1,-1.0295784E0,2.2397736E-1,1.4178716E0,1.4519298E0,4.9549017E-2,1.3372278E0,1.9549349E-1,-3.5742885E-1,-1.1357921E0,6.6569227E-1,-4.0969956E-1,1.5662273E0,1.0099341E0,6.9617915E-1,1.5842855E-1,-3.0041534E-1,7.5518733E-1,1.4017653E0,-2.5324607E-2,8.2236135E-1,-3.9606988E-1,-8.805968E-1,-1.6062308E-2,-1.2781035E0,-6.98263E-1,1.4918873E-1,3.8242992E-2,-8.698067E-2,5.225904E-2,1.5774614E-1,4.0148175E-3,1.2923174E-1,3.7431628E-2,-2.6449392E-2,1.1804698E-1,4.0160727E-2,-5.4552514E-2,9.119999E-2,-1.17366515E-1,1.4677216E-1,1.2042957E-2,1.3475123E-1,-2.8810129E-2,5.1700927E-2,-9.3042694E-2,-1.00918666E-1,7.246017E-2,-4.2710997E-2,4.8442062E-2,-1.366248E-1,-8.249888E-2,-5.421567E-2,-1.5825507E-1],"categories":[],"categories_nodes":[],"categories_segments":[],"categories_sizes":[],"default_left":[0,0,0,0,0,0,0,0,0,0,0,0,0,0,0,0,0,0,0,0,0,0,0,0,0,0,0,0,0,0,0,0,0,0,0,0,0,0,0,0,0,0,0,0,0,0,0,0,0,0,0,0,0,0,0,0,0,0,0],"id":2,"left_children":[1,3,5,7,9,11,13,15,17,19,21,23,25,27,29,31,33,35,37,39,-1,41,43,45,-1,47,49,51,53,55,57,-1,-1,-1,-1,-1,-1,-1,-1,-1,-1,-1,-1,-1,-1,-1,-1,-1,-1,-1,-1,-1,-1,-1,-1,-1,-1,-1,-1],"loss_changes":[1.1511831E3,6.4630615E1,1.9495584E2,6.431586E1,2.7102129E1,1.4001671E1,4.3235046E1,1.5015757E1,2.1419434E1,6.128197E-1,1.7880898E1,4.05867E0,6.5715203E0,1.5143801E1,3.1947327E1,6.7821693E0,1.0000383E1,4.683716E0,1.8213936E1,2.3314881E0,0E0,8.565208E0,8.325169E0,2.7666626E0,0E0,5.346482E0,5.0382614E0,7.644964E0,1.0982637E1,1.4719543E1,1.7315247E1,0E0,0E0,0E0,0E0,0E0,0E0,0E0,0E0,0E0,0E0,0E0,0E0,0E0,0E0,0E0,0E0,0E0,0E0,0E0,0E0,0E0,0E0,0E0,0E0,0E0,0E0,0E0,0E0],"parents":[2147483647,0,0,1,1,2,2,3,3,4,4,5,5,6,6,7,7,8,8,9,9,10,10,11,11,12,12,13,13,14,14,15,15,16,16,17,17,18,18,19,19,21,21,22,22,23,23,25,25,26,26,27,27,28,28,29,29,30,30],"right_children":[2,4,6,8,10,12,14,16,18,20,22,24,26,28,30,32,34,36,38,40,-1,42,44,46,-1,48,50,52,54,56,58,-1,-1,-1,-1,-1,-1,-1,-1,-1,-1,-1,-1,-1,-1,-1,-1,-1,-1,-1,-1,-1,-1,-1,-1,-1,-1,-1,-1],"split_conditions":[-1.3804425E-1,-4.72202E-1,3.6397803E-1,-2.1527178E0,3.6397803E-1,5.156976E-1,1.961135E-1,6.331595E-1,-1.1405175E0,1.2607858E-1,-2.6002776E-2,2.5297193E-2,8.90924E-1,2.4635188E-1,-2.6002776E-2,3.6397803E-1,1.9995553E0,4.3532267E0,-2.2153138E-1,-2.9547223E-1,1.5842855E-1,-8.118098E-1,3.3618846E0,5.6004965E-1,-2.5324607E-2,6.166676E-1,5.874531E-1,3.6842173E-1,1.8738662E-1,4.4399047E-1,1.7541919E0,1.4918873E-1,3.8242992E-2,-8.698067E-2,5.225904E-2,1.5774614E-1,4.0148175E-3,1.2923174E-1,3.7431628E-2,-2.6449392E-2,1.1804698E-1,4.0160727E-2,-5.4552514E-2,9.119999E-2,-1.17366515E-1,1.4677216E-1,1.2042957E-2,1.3475123E-1,-2.8810129E-2,5.1700927E-2,-9.3042694E-2,-1.00918666E-1,7.246017E-2,-4.2710997E-2,4.8442062E-2,-1.366248E-1,-8.249888E-2,-5.421567E-2,-1.5825507E-1],"split_indices":[30,30,16,22,16,31,30,12,30,3,19,7,35,29,19,16,6,10,24,19,0,6,10,25,0,6,31,28,3,3,18,0,0,0,0,0,0,0,0,0,0,0,0,0,0,0,0,0,0,0,0,0,0,0,0,0,0,0,0],"split_type":[0,0,0,0,0,0,0,0,0,0,0,0,0,0,0,0,0,0,0,0,0,0,0,0,0,0,0,0,0,0,0,0,0,0,0,0,0,0,0,0,0,0,0,0,0,0,0,0,0,0,0,0,0,0,0,0,0,0,0],"sum_hessian":[1.1785908E3,5.1737384E2,6.612169E2,4.3073218E2,8.664167E1,5.0925003E1,6.1029193E2,5.167161E1,3.7906058E2,1.6152897E1,7.048877E1,3.5082317E1,1.5842686E1,8.3874695E1,5.2641724E2,3.0417835E1,2.1253775E1,2.7588815E2,1.031724E2,3.3402114E0,1.2812686E1,4.7503483E1,2.298529E1,3.3828297E1,1.254019E0,7.502397E0,8.340289E0,3.2494694E1,5.138E1,3.95768E2,1.3064923E2,6.6767807E0,2.3741055E1,1.4275499E1,6.978276E0,2.7383865E2,2.0494976E0,7.072053E1,3.2451874E1,1.2716095E0,2.0686018E0,1.21282625E1,3.5375217E1,2.1744665E1,1.2406245E0,3.20339E1,1.794395E0,4.948652E0,2.553745E0,3.0910096E0,5.249279E0,3.0428425E1,2.0662699E0,2.8291084E1,2.3088919E1,3.2962994E2,6.6138084E1,1.1241698E2,1.823225E1],"tree_param":{"num_deleted":"0","num_feature":"36","num_nodes":"59","size_leaf_vector":"1"}},{"base_weights":[1.6342248E-3,1.0316194E0,-7.995502E-1,1.2471346E0,5.0888246E-1,9.1643673E-1,-9.434514E-1,2.0631465E-1,1.420301E0,1.4107202E0,2.3705778E-1,1.2395226E0,1.8139112E-1,-6.1790127E-1,-1.1529504E0,1.248003E0,-3.28789E-2,1.4374352E0,-3.2789537E-1,1.5062648E-1,4.4652092E-1,-8.4156856E-2,8.195983E-1,1.3380171E0,6.339149E-2,-3.922401E-1,7.8817403E-1,-7.031364E-1,1.2177868E0,-1.2268854E0,-4.632829E-1,1.4330149E-1,4.3584924E-2,-7.190164E-2,3.0296037E-2,1.4514889E-1,3.4540392E-2,-1.18235104E-1,9.719204E-2,-5.5399932E-2,1.1225688E-1,8.515162E-2,-1.99723E-2,9.421561E-2,-1.2524596E-1,1.432514E-1,3.1716026E-2,-1.038296E-1,1.0156079E-1,7.98428E-2,-7.831685E-2,-2.8126208E-2,1.0162266E-1,-7.970538E-2,4.083636E-2,-3.3990298E-3,1.3506642E-1,-1.252778E-1,-1.3933656E-2,6.003526E-2,-7.615471E-2],"categories":[],"categories_nodes":[],"categories_segments":[],"categories_sizes":[],"default_left":[0,0,0,0,0,0,0,0,0,0,0,0,0,0,0,0,0,0,0,0,0,0,0,0,0,0,0,0,0,0,0,0,0,0,0,0,0,0,0,0,0,0,0,0,0,0,0,0,0,0,0,0,0,0,0,0,0,0,0,0,0],"id":3,"left_children":[1,3,5,7,9,11,13,15,17,19,21,23,25,27,29,31,33,35,37,-1,39,41,43,45,47,49,51,53,55,57,59,-1,-1,-1,-1,-1,-1,-1,-1,-1,-1,-1,-1,-1,-1,-1,-1,-1,-1,-1,-1,-1,-1,-1,-1,-1,-1,-1,-1,-1,-1],"loss_changes":[9.55663E2,5.644818E1,1.617153E2,6.4246704E1,3.6340298E1,1.1864536E1,4.0310547E1,1.305951E1,9.6622925E0,2.5008469E0,2.180467E1,3.991825E0,6.127123E0,3.8043076E1,1.8034058E1,8.45335E-1,1.0233737E1,4.164856E0,5.3611403E0,0E0,3.6840017E0,8.364348E0,1.1687954E1,2.6733665E0,5.008439E0,4.9354744E0,2.347909E0,2.4100815E1,1.8609066E0,9.0867E0,1.2173063E1,0E0,0E0,0E0,0E0,0E0,0E0,0E0,0E0,0E0,0E0,0E0,0E0,0E0,0E0,0E0,0E0,0E0,0E0,0E0,0E0,0E0,0E0,0E0,0E0,0E0,0E0,0E0,0E0,0E0,0E0],"parents":[2147483647,0,0,1,1,2,2,3,3,4,4,5,5,6,6,7,7,8,8,9,9,10,10,11,11,12,12,13,13,14,14,15,15,16,16,17,17,18,18,20,20,21,21,22,22,23,23,24,24,25,25,26,26,27,27,28,28,29,29,30,30],"right_children":[2,4,6,8,10,12,14,16,18,20,22,24,26,28,30,32,34,36,38,-1,40,42,44,46,48,50,52,54,56,58,60,-1,-1,-1,-1,-1,-1,-1,-1,-1,-1,-1,-1,-1,-1,-1,-1,-1,-1,-1,-1,-1,-1,-1,-1,-1,-1,-1,-1,-1,-1],"split_conditions":[-1.3804425E-1,-8.0635977E-1,3.6397803E-1,-2.1527178E0,3.6397803E-1,5.156976E-1,5.3027123E-1,3.6397803E-1,4.3532267E0,7.4310946E-1,-2.6002776E-2,9.784937E-1,2.7511828E0,1.323199E0,1.6273822E0,4.187956E-1,-5.649417E-1,7.240369E-1,6.945968E0,1.5062648E-1,-4.72202E-1,-1.2677069E0,3.3618846E0,7.8382987E-1,3.912604E-1,1.0554394E-1,5.679E-1,2.7511828E0,-2.4074495E0,1.1187023E0,-3.1643736E-1,1.4330149E-1,4.3584924E-2,-7.190164E-2,3.0296037E-2,1.4514889E-1,3.4540392E-2,-1.18235104E-1,9.719204E-2,-5.5399932E-2,1.1225688E-1,8.515162E-2,-1.99723E-2,9.421561E-2,-1.2524596E-1,1.432514E-1,3.1716026E-2,-1.038296E-1,1.0156079E-1,7.98428E-2,-7.831685E-2,-2.8126208E-2,1.0162266E-1,-7.970538E-2,4.083636E-2,-3.3990298E-3,1.3506642E-1,-1.252778E-1,-1.3933656E-2,6.003526E-2,-7.615471E-2],"split_indices":[30,30,16,22,16,31,30,16,10,12,19,2,15,27,23,33,19,22,10,0,30,6,10,6,25,24,31,15,6,32,11,0,0,0,0,0,0,0,0,0,0,0,0,0,0,0,0,0,0,0,0,0,0,0,0,0,0,0,0,0,0],"split_type":[0,0,0,0,0,0,0,0,0,0,0,0,0,0,0,0,0,0,0,0,0,0,0,0,0,0,0,0,0,0,0,0,0,0,0,0,0,0,0,0,0,0,0,0,0,0,0,0,0,0,0,0,0,0,0,0,0,0,0,0,0],"sum_hessian":[1.1560878E3,5.0569266E2,6.503951E2,3.570865E2,1.4860616E2,4.990629E1,6.0048883E2,5.1248383E1,3.058381E2,3.344737E1,1.1515878E2,3.419133E1,1.5714958E1,2.3666837E2,3.6382047E2,8.782599E0,4.2465782E1,3.030457E2,2.7924156E0,2.9920311E1,3.527058E0,7.478026E1,4.0378525E1,3.1422249E1,2.7690833E0,8.259907E0,7.4550514E0,2.2675652E2,9.91185E0,3.2789035E2,3.59301E1,6.530471E0,2.2521288E0,1.3580054E1,2.8885729E1,2.9887027E2,4.175441E0,1.7393773E0,1.0530382E0,1.4950233E0,2.0320346E0,7.5207586E0,6.72595E1,3.8638447E1,1.7400767E0,2.8390957E1,3.0312917E0,1.2418724E0,1.5272108E0,1.7839775E0,6.4759293E0,1.2693247E0,6.1857266E0,2.0935014E2,1.7406363E1,1.0225999E0,8.889251E0,3.2011707E2,7.7733006E0,7.647093E0,2.8283007E1],"tree_param":{"num_deleted":"0","num_feature":"36","num_nodes":"61","size_leaf_vector":"1"}},{"base_weights":[2.4799968E-3,9.576763E-1,-7.352966E-1,1.1652355E0,4.6569481E-1,8.523206E-1,-8.677732E-1,1.8971013E-1,1.333237E0,1.3210382E0,2.1499082E-1,1.159542E0,1.693394E-1,-1.0272894E0,-4.7199428E-1,5.8327764E-1,-3.707744E-1,1.3497511E0,-3.0320597E-1,1.3673321E0,-7.723742E-3,-3.2528587E-2,8.439713E-1,1.2534902E0,5.7411864E-2,7.365117E-1,-3.6167356E-1,-1.1524956E0,-6.975941E-1,9.739512E-2,-7.924053E-1,1.3302234E-1,3.3984426E-2,-7.951378E-2,4.831876E-2,1.3634491E-1,3.197766E-2,-1.1163356E-1,9.259039E-2,1.4369383E-1,5.6732696E-2,3.7977726E-3,-1.3771905E-1,9.767461E-2,-7.923923E-2,1.3244806E-1,4.1716686E-3,-9.863569E-2,9.67462E-2,1.3269523E-1,-1.2379575E-2,4.782536E-2,-8.575549E-2,-1.1820572E-1,4.7937177E-2,-4.7489278E-2,-1.351733E-1,-1.9896394E-2,1.0988649E-1,-1.1126893E-1,-3.2349933E-2],"categories":[],"categories_nodes":[],"categories_segments":[],"categories_sizes":[],"default_left":[0,0,0,0,0,0,0,0,0,0,0,0,0,0,0,0,0,0,0,0,0,0,0,0,0,0,0,0,0,0,0,0,0,0,0,0,0,0,0,0,0,0,0,0,0,0,0,0,0,0,0,0,0,0,0,0,0,0,0,0,0],"id":4,"left_children":[1,3,5,7,9,11,13,15,17,19,21,23,25,27,29,31,33,35,37,39,-1,41,43,45,47,49,51,53,55,57,59,-1,-1,-1,-1,-1,-1,-1,-1,-1,-1,-1,-1,-1,-1,-1,-1,-1,-1,-1,-1,-1,-1,-1,-1,-1,-1,-1,-1,-1,-1],"loss_changes":[7.969185E2,4.9779694E1,1.3493112E2,5.643927E1,3.1427773E1,1.0220173E1,3.6724884E1,1.1683842E1,8.379456E0,2.2628326E0,1.8017992E1,3.4557648E0,5.2579103E0,1.6501617E1,3.1303211E1,5.171875E0,8.377389E0,3.6860962E0,4.794546E0,9.8405075E-1,0E0,8.005429E0,7.872097E0,2.6412582E0,4.491719E0,4.4022985E0,4.2545695E0,1.5150024E1,1.6536438E1,1.8775354E1,1.6105415E1,0E0,0E0,0E0,0E0,0E0,0E0,0E0,0E0,0E0,0E0,0E0,0E0,0E0,0E0,0E0,0E0,0E0,0E0,0E0,0E0,0E0,0E0,0E0,0E0,0E0,0E0,0E0,0E0,0E0,0E0],"parents":[2147483647,0,0,1,1,2,2,3,3,4,4,5,5,6,6,7,7,8,8,9,9,10,10,11,11,12,12,13,13,14,14,15,15,16,16,17,17,18,18,19,19,21,21,22,22,23,23,24,24,25,25,26,26,27,27,28,28,29,29,30,30],"right_children":[2,4,6,8,10,12,14,16,18,20,22,24,26,28,30,32,34,36,38,40,-1,42,44,46,48,50,52,54,56,58,60,-1,-1,-1,-1,-1,-1,-1,-1,-1,-1,-1,-1,-1,-1,-1,-1,-1,-1,-1,-1,-1,-1,-1,-1,-1,-1,-1,-1,-1,-1],"split_conditions":[-1.3804425E-1,-8.0635977E-1,3.6397803E-1,-2.1527178E0,3.6397803E-1,5.156976E-1,5.013502E-1,6.331595E-1,4.3532267E0,2.2863386E0,2.4346669E-1,9.784937E-1,8.90924E-1,3.9306524E-1,4.3261924E-1,3.6397803E-1,1.9995553E0,7.240369E-1,6.945968E0,7.4310946E-1,-7.723742E-3,3.3618846E0,1.7541919E0,5.6004965E-1,3.912604E-1,1.7596716E-1,5.874531E-1,2.321136E0,6.81854E-1,3.6842173E-1,1.08731955E-1,1.3302234E-1,3.3984426E-2,-7.951378E-2,4.831876E-2,1.3634491E-1,3.197766E-2,-1.1163356E-1,9.259039E-2,1.4369383E-1,5.6732696E-2,3.7977726E-3,-1.3771905E-1,9.767461E-2,-7.923923E-2,1.3244806E-1,4.1716686E-3,-9.863569E-2,9.67462E-2,1.3269523E-1,-1.2379575E-2,4.782536E-2,-8.575549E-2,-1.1820572E-1,4.7937177E-2,-4.7489278E-2,-1.351733E-1,-1.9896394E-2,1.0988649E-1,-1.1126893E-1,-3.2349933E-2],"split_indices":[30,30,16,22,16,31,29,12,10,29,19,2,35,3,24,16,6,22,10,12,0,10,18,25,25,6,31,21,31,28,19,0,0,0,0,0,0,0,0,0,0,0,0,0,0,0,0,0,0,0,0,0,0,0,0,0,0,0,0,0,0],"split_type":[0,0,0,0,0,0,0,0,0,0,0,0,0,0,0,0,0,0,0,0,0,0,0,0,0,0,0,0,0,0,0,0,0,0,0,0,0,0,0,0,0,0,0,0,0,0,0,0,0,0,0,0,0,0,0,0,0,0,0,0,0],"sum_hessian":[1.1288284E3,4.917995E2,6.370288E2,3.4491632E2,1.468832E2,4.8643578E1,5.8838525E2,5.0986286E1,2.9393002E2,3.23258E1,1.14557396E2,3.3070095E1,1.5573484E1,4.182261E2,1.7015912E2,2.9929426E1,2.1056858E1,2.9116693E2,2.7630875E0,3.1311285E1,1.0145175E0,8.288742E1,3.1669971E1,3.0345993E1,2.724101E0,7.343227E0,8.230258E0,3.013057E2,1.1692043E2,6.152377E1,1.0863535E2,6.2592516E0,2.3670176E1,1.4112668E1,6.9441905E0,2.870259E2,4.141039E0,1.7181687E0,1.0449187E0,2.8072605E1,3.2386806E0,7.968116E1,3.2062638E0,2.966597E1,2.0040007E0,2.8578732E1,1.7672627E0,1.2297771E0,1.494324E0,4.032946E0,3.3102808E0,3.068448E0,5.1618094E0,2.9621533E2,5.0903497E0,8.8512405E1,2.8408031E1,4.809317E1,1.3430601E1,6.373115E1,4.4904198E1],"tree_param":{"num_deleted":"0","num_feature":"36","num_nodes":"61","size_leaf_vector":"1"}},{"base_weights":[2.8547682E-3,8.930339E-1,-6.788567E-1,1.0361125E0,2.2144756E-1,7.96362E-1,-8.011485E-1,1.7540613E-1,1.1623249E0,1.1974711E0,4.309212E-3,1.0901128E0,1.595481E-1,-4.9813327E-1,-1.0012357E0,6.750432E-1,-2.2882573E-1,1.3050395E0,7.9376704E-1,4.7721386E-1,1.3408266E-1,-3.8421965E-1,4.5806363E-1,1.1916056E0,1.1023669E-1,-3.5918644E-1,7.070991E-1,-9.3464226E-1,-1.8841316E-1,-4.0905905E-1,-1.0847719E0,-2.7160153E-2,8.977424E-2,-3.847858E-2,1.2485512E-1,1.3151918E-1,4.745614E-3,9.61195E-2,-8.681978E-3,-4.028113E-2,9.918181E-2,-7.773065E-2,2.1106254E-2,-7.2740555E-2,6.961964E-2,1.2767205E-1,1.6968725E-2,-5.5241615E-2,6.664347E-2,3.330886E-2,-1.0299356E-1,1.01336874E-1,-1.8467916E-2,-1.11038744E-1,-3.1413358E-2,-2.887933E-2,1.22059576E-1,-6.5617956E-2,7.73832E-2,-1.1228144E-1,-2.5415955E-2],"categories":[],"categories_nodes":[],"categories_segments":[],"categories_sizes":[],"default_left":[0,0,0,0,0,0,0,0,0,0,0,0,0,0,0,0,0,0,0,0,0,0,0,0,0,0,0,0,0,0,0,0,0,0,0,0,0,0,0,0,0,0,0,0,0,0,0,0,0,0,0,0,0,0,0,0,0,0,0,0,0],"id":5,"left_children":[1,3,5,7,9,11,13,15,17,19,21,23,25,27,29,31,33,35,37,39,-1,41,43,45,47,49,51,53,55,57,59,-1,-1,-1,-1,-1,-1,-1,-1,-1,-1,-1,-1,-1,-1,-1,-1,-1,-1,-1,-1,-1,-1,-1,-1,-1,-1,-1,-1,-1,-1],"loss_changes":[6.6765656E2,4.5619446E1,1.1304303E2,4.249649E1,1.8024456E1,8.8421955E0,3.441565E1,1.0545005E1,1.698584E1,9.5832443E-1,1.262152E1,3.131794E0,4.9081707E0,3.1056194E1,1.6664795E1,5.147668E0,7.205E0,3.0711975E0,1.4560444E1,2.266184E0,0E0,9.190356E0,9.827902E0,2.3606148E0,1.909318E0,4.5581727E0,2.4563951E0,1.0079765E1,1.9642422E1,1.3475403E1,9.272827E0,0E0,0E0,0E0,0E0,0E0,0E0,0E0,0E0,0E0,0E0,0E0,0E0,0E0,0E0,0E0,0E0,0E0,0E0,0E0,0E0,0E0,0E0,0E0,0E0,0E0,0E0,0E0,0E0,0E0,0E0],"parents":[2147483647,0,0,1,1,2,2,3,3,4,4,5,5,6,6,7,7,8,8,9,9,10,10,11,11,12,12,13,13,14,14,15,15,16,16,17,17,18,18,19,19,21,21,22,22,23,23,24,24,25,25,26,26,27,27,28,28,29,29,30,30],"right_children":[2,4,6,8,10,12,14,16,18,20,22,24,26,28,30,32,34,36,38,40,-1,42,44,46,48,50,52,54,56,58,60,-1,-1,-1,-1,-1,-1,-1,-1,-1,-1,-1,-1,-1,-1,-1,-1,-1,-1,-1,-1,-1,-1,-1,-1,-1,-1,-1,-1,-1,-1],"split_conditions":[-1.3804425E-1,-4.72202E-1,3.6397803E-1,-2.1527178E0,3.6397803E-1,5.156976E-1,5.3027123E-1,8.478775E-2,-1.1405175E0,1.2607858E-1,-3.40596E-2,7.8382987E-1,2.7511828E0,-9.789304E-2,2.3687832E-1,-1.0099689E0,2.4346669E-1,4.3532267E0,1.0554394E-1,-2.9547223E-1,1.3408266E-1,7.6672995E-1,-5.486067E-1,9.784937E-1,2.4346669E-1,-1.3113909E0,3.367014E-1,7.824056E-1,1.8580707E0,3.1425588E0,1.259193E0,-2.7160153E-2,8.977424E-2,-3.847858E-2,1.2485512E-1,1.3151918E-1,4.745614E-3,9.61195E-2,-8.681978E-3,-4.028113E-2,9.918181E-2,-7.773065E-2,2.1106254E-2,-7.2740555E-2,6.961964E-2,1.2767205E-1,1.6968725E-2,-5.5241615E-2,6.664347E-2,3.330886E-2,-1.0299356E-1,1.01336874E-1,-1.8467916E-2,-1.11038744E-1,-3.1413358E-2,-2.887933E-2,1.22059576E-1,-6.5617956E-2,7.73832E-2,-1.1228144E-1,-2.5415955E-2],"split_indices":[30,30,16,22,16,31,30,6,30,3,1,6,15,22,25,33,19,10,24,19,0,35,24,2,19,9,3,19,27,28,26,0,0,0,0,0,0,0,0,0,0,0,0,0,0,0,0,0,0,0,0,0,0,0,0,0,0,0,0,0,0],"split_type":[0,0,0,0,0,0,0,0,0,0,0,0,0,0,0,0,0,0,0,0,0,0,0,0,0,0,0,0,0,0,0,0,0,0,0,0,0,0,0,0,0,0,0,0,0,0,0,0,0,0,0,0,0,0,0,0,0,0,0,0,0],"sum_hessian":[1.09821E3,4.7614694E2,6.220629E2,3.9207437E2,8.407258E1,4.71979E1,5.7486505E2,5.0446136E1,3.4162823E2,1.4478376E1,6.95942E1,3.1811844E1,1.5386056E1,2.3001558E2,3.448495E2,2.2261108E1,2.8185028E1,2.4443579E2,9.719245E1,3.121913E0,1.1356463E1,3.757431E1,3.2019894E1,2.863032E1,3.1815248E0,8.077587E0,7.308469E0,9.462982E1,1.3538576E2,4.3361595E1,3.0148788E2,4.197764E0,1.8063345E1,2.6162699E1,2.0223303E0,2.4243285E2,2.002932E0,8.158834E1,1.56041155E1,1.2321141E0,1.889799E0,2.2446365E1,1.5127943E1,5.0124354E0,2.7007458E1,2.6198895E1,2.4314246E0,1.4549274E0,1.7265973E0,4.222739E0,3.854848E0,5.3386374E0,1.9698315E0,7.312837E1,2.1501444E1,1.2712425E2,8.261505E0,3.62366E1,7.124996E0,2.879479E2,1.3539989E1],"tree_param":{"num_deleted":"0","num_feature":"36","num_nodes":"61","size_leaf_vector":"1"}},{"base_weights":[3.4345435E-3,6.991388E-1,-7.5982004E-1,9.7256607E-1,1.2709351E-1,5.3506553E-1,-8.376062E-1,1.6178797E-1,1.0961177E0,1.1184754E0,-8.4829845E-2,9.085842E-1,-3.7921852E-1,5.438294E-1,-8.7373304E-1,1.0960016E0,-4.0185697E-2,1.2419914E0,7.314398E-1,9.64852E-2,1.1946554E0,-2.931475E-1,3.7621698E-1,1.2343965E0,1.2453427E-1,-7.143641E-1,5.6350637E-2,8.618637E-1,-1.0218441E-1,-9.8470193E-1,-4.3736082E-1,1.2680481E-1,3.7687793E-2,-3.541487E-2,5.4319512E-2,1.2521906E-1,4.4290028E-3,9.907178E-2,1.8307624E-2,-3.0030651E-2,4.4867672E-2,3.6821827E-2,1.2468492E-1,-4.4334024E-2,7.8840084E-2,5.4719068E-2,-9.3408495E-2,1.2892656E-1,2.8962983E-2,-1.0364922E-1,5.810032E-2,-1.3811006E-1,-2.5396675E-3,-8.8863775E-2,1.1932557E-1,-1.0928946E-1,-6.711155E-2,-8.560917E-2,5.495524E-3],"categories":[],"categories_nodes":[],"categories_segments":[],"categories_sizes":[],"default_left":[0,0,0,0,0,0,0,0,0,0,0,0,0,0,0,0,0,0,0,0,0,0,0,0,0,0,0,0,0,0,0,0,0,0,0,0,0,0,0,0,0,0,0,0,0,0,0,0,0,0,0,0,0,0,0,0,0,0,0],"id":6,"left_children":[1,3,5,7,9,11,13,15,17,19,21,23,25,27,29,31,33,35,37,39,41,43,45,47,49,51,-1,53,-1,55,57,-1,-1,-1,-1,-1,-1,-1,-1,-1,-1,-1,-1,-1,-1,-1,-1,-1,-1,-1,-1,-1,-1,-1,-1,-1,-1,-1,-1],"loss_changes":[5.6760803E2,8.734476E1,5.179007E1,3.7709473E1,3.8332817E1,1.0417251E1,2.4491913E1,9.702243E0,1.6541534E1,2.385765E0,1.4601168E1,5.2707767E0,3.3283854E0,7.2944613E0,2.229712E1,6.522455E-1,8.077771E0,2.7892456E0,1.3489925E1,5.981841E-1,8.266449E-1,1.7321934E1,1.1128557E1,3.984089E-1,4.4953437E0,3.305704E0,0E0,7.5856104E0,0E0,1.1935028E1,2.0034357E1,0E0,0E0,0E0,0E0,0E0,0E0,0E0,0E0,0E0,0E0,0E0,0E0,0E0,0E0,0E0,0E0,0E0,0E0,0E0,0E0,0E0,0E0,0E0,0E0,0E0,0E0,0E0,0E0],"parents":[2147483647,0,0,1,1,2,2,3,3,4,4,5,5,6,6,7,7,8,8,9,9,10,10,11,11,12,12,13,13,14,14,15,15,16,16,17,17,18,18,19,19,20,20,21,21,22,22,23,23,24,24,25,25,27,27,29,29,30,30],"right_children":[2,4,6,8,10,12,14,16,18,20,22,24,26,28,30,32,34,36,38,40,42,44,46,48,50,52,-1,54,-1,56,58,-1,-1,-1,-1,-1,-1,-1,-1,-1,-1,-1,-1,-1,-1,-1,-1,-1,-1,-1,-1,-1,-1,-1,-1,-1,-1,-1,-1],"split_conditions":[1.961135E-1,-4.72202E-1,3.6397803E-1,-2.1527178E0,3.6397803E-1,2.5195E-1,-3.7471348E-1,3.6397803E-1,-1.1405175E0,-1.191724E0,-2.6002776E-2,8.90924E-1,2.1355242E-1,-1.53997E-1,4.4399047E-1,4.187956E-1,-9.110499E-2,4.3532267E0,-2.2153138E-1,4.2230356E-1,3.6326807E-2,2.7511828E0,9.76753E-1,1.7541919E0,-4.732114E-1,-3.40596E-2,5.6350637E-2,-1.3869418E-1,-1.0218441E-1,1.365865E0,-5.739941E-2,1.2680481E-1,3.7687793E-2,-3.541487E-2,5.4319512E-2,1.2521906E-1,4.4290028E-3,9.907178E-2,1.8307624E-2,-3.0030651E-2,4.4867672E-2,3.6821827E-2,1.2468492E-1,-4.4334024E-2,7.8840084E-2,5.4719068E-2,-9.3408495E-2,1.2892656E-1,2.8962983E-2,-1.0364922E-1,5.810032E-2,-1.3811006E-1,-2.5396675E-3,-8.8863775E-2,1.1932557E-1,-1.0928946E-1,-6.711155E-2,-8.560917E-2,5.495524E-3],"split_indices":[30,30,16,22,16,6,10,16,30,6,19,35,2,5,3,33,1,10,24,1,31,15,12,18,12,1,0,9,0,17,23,0,0,0,0,0,0,0,0,0,0,0,0,0,0,0,0,0,0,0,0,0,0,0,0,0,0,0,0],"split_type":[0,0,0,0,0,0,0,0,0,0,0,0,0,0,0,0,0,0,0,0,0,0,0,0,0,0,0,0,0,0,0,0,0,0,0,0,0,0,0,0,0,0,0,0,0,0,0,0,0,0,0,0,0,0,0,0,0,0,0],"sum_hessian":[1.0669423E3,5.5821497E2,5.0872726E2,3.772136E2,1.8100136E2,2.849527E1,4.80232E2,5.0186474E1,3.270271E2,3.1124157E1,1.498772E2,2.023483E1,8.260438E0,1.1880664E1,4.6835135E2,8.134502E0,4.205197E1,2.3187132E2,9.515579E1,2.3163116E0,2.8807846E1,1.0348369E2,4.6393513E1,1.3888906E1,6.3459253E0,6.2726865E0,1.9877512E0,1.0248431E1,1.6322327E0,3.7239517E2,9.5956154E1,5.9481225E0,2.1863801E0,2.7594269E1,1.4457703E1,2.2986833E2,2.002985E0,6.406012E1,3.1095667E1,1.1584642E0,1.1578474E0,2.189771E0,2.6618074E1,9.138351E1,1.210018E1,4.1553795E1,4.83972E0,1.278193E1,1.106976E0,1.4322724E0,4.913653E0,2.6772392E0,3.5954473E0,1.3636633E0,8.884768E0,2.7502258E2,9.73726E1,5.1453968E1,4.4502186E1],"tree_param":{"num_deleted":"0","num_feature":"36","num_nodes":"59","size_leaf_vector":"1"}},{"base_weights":[3.7848523E-3,6.521389E-1,-7.057872E-1,9.158234E-1,1.1694902E-1,4.9723685E-1,-7.7812815E-1,1.5043585E-1,1.0372977E0,1.0574532E0,-7.679515E-2,8.548561E-1,-3.525954E-1,-9.0756357E-1,-4.05447E-1,1.03922E0,-3.573191E-2,1.1868995E0,6.758959E-1,9.1700025E-2,1.132323E0,-4.1887113E-1,1.9762567E-1,1.1757151E0,1.07292354E-1,2.7977782E-1,-8.517432E-1,-9.937365E-1,-4.9308714E-1,-2.6243037E-1,-1.2735758E0,1.16841674E-1,2.3364723E-2,-6.2137783E-2,2.5105795E-2,7.9799E-2,1.2323686E-1,9.240978E-2,1.6594496E-2,4.3329995E-2,-2.9532647E-2,6.139056E-2,1.2542109E-1,-9.13199E-2,3.0934773E-3,-1.7488634E-2,7.04319E-2,1.229635E-1,2.7610822E-2,6.303423E-2,-8.285246E-2,-5.9936263E-2,1.046515E-1,-9.042033E-3,-1.3691068E-1,-1.0199509E-1,-1.3686991E-3,-7.808781E-2,1.9749945E-2,2.9380545E-2,-4.7447037E-2,-1.3866745E-1,1.6431361E-2],"categories":[],"categories_nodes":[],"categories_segments":[],"categories_sizes":[],"default_left":[0,0,0,0,0,0,0,0,0,0,0,0,0,0,0,0,0,0,0,0,0,0,0,0,0,0,0,0,0,0,0,0,0,0,0,0,0,0,0,0,0,0,0,0,0,0,0,0,0,0,0,0,0,0,0,0,0,0,0,0,0,0,0],"id":7,"left_children":[1,3,5,7,9,11,13,15,17,19,21,23,25,27,29,31,33,35,37,39,41,43,45,47,49,51,53,55,57,59,61,-1,-1,-1,-1,-1,-1,-1,-1,-1,-1,-1,-1,-1,-1,-1,-1,-1,-1,-1,-1,-1,-1,-1,-1,-1,-1,-1,-1,-1,-1,-1,-1],"loss_changes":[4.771806E2,7.637935E1,4.348633E1,3.358914E1,3.288784E1,9.024063E0,2.2185059E1,8.456411E0,1.6124146E1,2.12471E0,1.4184374E1,4.7891912E0,3.1449404E0,1.1875366E1,1.485371E1,6.4762497E-1,7.384484E0,2.9085083E0,1.1741306E1,5.649936E-1,1.0318909E0,1.4967611E1,1.5984211E1,3.5112E-1,4.073172E0,3.8728113E0,2.0006456E0,7.32428E0,1.2391885E1,1.2675215E1,2.999382E0,0E0,0E0,0E0,0E0,0E0,0E0,0E0,0E0,0E0,0E0,0E0,0E0,0E0,0E0,0E0,0E0,0E0,0E0,0E0,0E0,0E0,0E0,0E0,0E0,0E0,0E0,0E0,0E0,0E0,0E0,0E0,0E0],"parents":[2147483647,0,0,1,1,2,2,3,3,4,4,5,5,6,6,7,7,8,8,9,9,10,10,11,11,12,12,13,13,14,14,15,15,16,16,17,17,18,18,19,19,20,20,21,21,22,22,23,23,24,24,25,25,26,26,27,27,28,28,29,29,30,30],"right_children":[2,4,6,8,10,12,14,16,18,20,22,24,26,28,30,32,34,36,38,40,42,44,46,48,50,52,54,56,58,60,62,-1,-1,-1,-1,-1,-1,-1,-1,-1,-1,-1,-1,-1,-1,-1,-1,-1,-1,-1,-1,-1,-1,-1,-1,-1,-1,-1,-1,-1,-1,-1,-1],"split_conditions":[1.961135E-1,-4.72202E-1,3.6397803E-1,-2.1527178E0,3.6397803E-1,2.5195E-1,-2.6002776E-2,3.6397803E-1,-1.1405175E0,-1.191724E0,-9.393448E-2,8.90924E-1,5.3027123E-1,4.4399047E-1,1.7541919E0,7.774688E-1,-5.649417E-1,-1.1002597E0,-2.2153138E-1,-1.3113909E0,1.2607858E-1,1.365865E0,1.7560796E-1,1.7541919E0,3.367014E-1,-3.40596E-2,-4.3020698E-1,1.0444041E0,9.784937E-1,2.3687832E-1,1.7347629E0,1.16841674E-1,2.3364723E-2,-6.2137783E-2,2.5105795E-2,7.9799E-2,1.2323686E-1,9.240978E-2,1.6594496E-2,4.3329995E-2,-2.9532647E-2,6.139056E-2,1.2542109E-1,-9.13199E-2,3.0934773E-3,-1.7488634E-2,7.04319E-2,1.229635E-1,2.7610822E-2,6.303423E-2,-8.285246E-2,-5.9936263E-2,1.046515E-1,-9.042033E-3,-1.3691068E-1,-1.0199509E-1,-1.3686991E-3,-7.808781E-2,1.9749945E-2,2.9380545E-2,-4.7447037E-2,-1.3866745E-1,1.6431361E-2],"split_indices":[30,30,16,22,16,6,19,16,30,6,28,35,30,3,18,12,19,34,24,9,3,17,8,18,3,1,19,25,2,25,33,0,0,0,0,0,0,0,0,0,0,0,0,0,0,0,0,0,0,0,0,0,0,0,0,0,0,0,0,0,0,0,0],"split_type":[0,0,0,0,0,0,0,0,0,0,0,0,0,0,0,0,0,0,0,0,0,0,0,0,0,0,0,0,0,0,0,0,0,0,0,0,0,0,0,0,0,0,0,0,0,0,0,0,0,0,0,0,0,0,0,0,0,0,0,0,0,0,0],"sum_hessian":[1.0352272E3,5.409909E2,4.942362E2,3.6194952E2,1.7904138E2,2.7700806E1,4.665354E2,4.9883163E1,3.1206638E2,2.9821085E1,1.4922029E2,1.9492306E1,8.208499E0,3.4520682E2,1.2132858E2,7.8455467E0,4.2037617E1,2.190901E2,9.2976265E1,2.305609E0,2.7515476E1,6.618802E1,8.303227E1,1.3237821E1,6.254485E0,3.8148866E0,4.393613E0,2.84632E2,6.0574833E1,1.05285934E2,1.6042648E1,6.3730297E0,1.4725168E0,1.3435229E1,2.8602386E1,2.487526E1,1.9421484E2,6.1991703E1,3.0984556E1,1.1611688E0,1.1444402E0,6.3869495E0,2.1128527E1,3.1042604E1,3.5145416E1,4.822958E1,3.480269E1,1.2143137E1,1.0946833E0,4.221446E0,2.0330389E0,1.87887E0,1.9360166E0,2.2529988E0,2.1406138E0,2.7717737E2,7.4546347E0,4.2664387E1,1.7910448E1,2.8951927E1,7.633401E1,1.4905833E1,1.136815E0],"tree_param":{"num_deleted":"0","num_feature":"36","num_nodes":"63","size_leaf_vector":"1"}},{"base_weights":[4.0907427E-3,6.0878074E-1,-6.563379E-1,8.637664E-1,1.0758111E-1,4.6314505E-1,-7.2369087E-1,1.3871764E-1,9.8364806E-1,1.0038399E0,-6.977473E-2,8.0626905E-1,-3.3134586E-1,-8.192967E-1,-2.3925777E-1,4.7120655E-1,-3.2299244E-1,1.1374668E0,6.251173E-1,8.709115E-2,1.0779585E0,-3.8154444E-1,1.7854543E-1,1.1237823E0,9.488215E-2,-6.419603E-1,5.2804954E-2,6.968916E-2,-8.615514E-1,6.04724E-1,-5.675158E-1,6.409289E-2,-4.1939348E-2,-7.285657E-2,4.8191264E-2,1.1491125E-1,-4.0867366E-3,6.85937E-2,-1.2671459E-1,-2.9227106E-2,4.273793E-2,5.7256915E-2,1.2011757E-1,-8.390228E-2,2.792135E-3,-1.5801068E-2,6.351336E-2,1.1772901E-1,2.632581E-2,-9.590434E-2,5.1261045E-2,-1.267383E-1,1.5255886E-4,-5.5618167E-2,8.4223986E-2,-9.031963E-2,-1.3134184E-2,-4.083431E-2,1.3449682E-1,8.300512E-2,-6.855234E-2],"categories":[],"categories_nodes":[],"categories_segments":[],"categories_sizes":[],"default_left":[0,0,0,0,0,0,0,0,0,0,0,0,0,0,0,0,0,0,0,0,0,0,0,0,0,0,0,0,0,0,0,0,0,0,0,0,0,0,0,0,0,0,0,0,0,0,0,0,0,0,0,0,0,0,0,0,0,0,0,0,0],"id":8,"left_children":[1,3,5,7,9,11,13,15,17,19,21,23,25,27,29,31,33,35,37,39,41,43,45,47,49,51,-1,53,55,57,59,-1,-1,-1,-1,-1,-1,-1,-1,-1,-1,-1,-1,-1,-1,-1,-1,-1,-1,-1,-1,-1,-1,-1,-1,-1,-1,-1,-1,-1,-1],"loss_changes":[4.0161932E2,6.699959E1,3.6578995E1,3.0095978E1,2.8390965E1,7.8698373E0,2.0821396E1,7.9067574E0,1.5740021E1,1.9104099E0,1.1655389E1,4.358509E0,2.7735963E0,1.4281158E1,2.1456743E1,4.769143E0,7.4483404E0,2.8947754E0,1.1431595E1,5.501863E-1,1.0062523E0,1.2513326E1,1.30075E1,3.1515694E-1,3.6581812E0,2.879635E0,0E0,9.221707E0,1.0873871E1,1.6916134E1,9.703333E0,0E0,0E0,0E0,0E0,0E0,0E0,0E0,0E0,0E0,0E0,0E0,0E0,0E0,0E0,0E0,0E0,0E0,0E0,0E0,0E0,0E0,0E0,0E0,0E0,0E0,0E0,0E0,0E0,0E0,0E0],"parents":[2147483647,0,0,1,1,2,2,3,3,4,4,5,5,6,6,7,7,8,8,9,9,10,10,11,11,12,12,13,13,14,14,15,15,16,16,17,17,18,18,19,19,20,20,21,21,22,22,23,23,24,24,25,25,27,27,28,28,29,29,30,30],"right_children":[2,4,6,8,10,12,14,16,18,20,22,24,26,28,30,32,34,36,38,40,42,44,46,48,50,52,-1,54,56,58,60,-1,-1,-1,-1,-1,-1,-1,-1,-1,-1,-1,-1,-1,-1,-1,-1,-1,-1,-1,-1,-1,-1,-1,-1,-1,-1,-1,-1,-1,-1],"split_conditions":[1.961135E-1,-4.72202E-1,3.6397803E-1,-2.1527178E0,3.6397803E-1,2.5195E-1,7.883274E-1,6.331595E-1,-1.1405175E0,-1.191724E0,-9.393448E-2,8.90924E-1,2.1355242E-1,1.8274815E-1,8.64429E-1,1.7541919E0,1.9995553E0,4.3532267E0,3.3618846E0,4.2230356E-1,1.2607858E-1,1.365865E0,1.7560796E-1,1.7541919E0,-4.732114E-1,-2.2219928E-1,5.2804954E-2,5.013502E-1,2.7511828E0,1.1350018E0,4.3261924E-1,6.409289E-2,-4.1939348E-2,-7.285657E-2,4.8191264E-2,1.1491125E-1,-4.0867366E-3,6.85937E-2,-1.2671459E-1,-2.9227106E-2,4.273793E-2,5.7256915E-2,1.2011757E-1,-8.390228E-2,2.792135E-3,-1.5801068E-2,6.351336E-2,1.1772901E-1,2.632581E-2,-9.590434E-2,5.1261045E-2,-1.267383E-1,1.5255886E-4,-5.5618167E-2,8.4223986E-2,-9.031963E-2,-1.3134184E-2,-4.083431E-2,1.3449682E-1,8.300512E-2,-6.855234E-2],"split_indices":[30,30,16,22,16,6,27,12,30,6,28,35,2,31,30,18,6,10,10,1,3,17,8,18,12,10,0,29,15,22,24,0,0,0,0,0,0,0,0,0,0,0,0,0,0,0,0,0,0,0,0,0,0,0,0,0,0,0,0,0,0],"split_type":[0,0,0,0,0,0,0,0,0,0,0,0,0,0,0,0,0,0,0,0,0,0,0,0,0,0,0,0,0,0,0,0,0,0,0,0,0,0,0,0,0,0,0,0,0,0,0,0,0,0,0,0,0,0,0,0,0,0,0,0,0],"sum_hessian":[1.0036705E3,5.239859E2,4.796845E2,3.4681842E2,1.7716751E2,2.688861E1,4.527959E2,4.9513874E1,2.9730453E2,2.8497387E1,1.4867012E2,1.8768196E1,8.120416E0,3.7758575E2,7.521016E1,2.8773088E1,2.0740786E1,2.0652681E2,9.077774E1,2.2943497E0,2.6203037E1,6.5676186E1,8.299394E1,1.2575617E1,6.1925793E0,6.1504464E0,1.9699695E0,1.7103334E1,3.6048242E2,2.0824984E1,5.4385178E1,2.4402943E1,4.370146E0,1.3854608E1,6.8861775E0,2.045302E2,1.9966135E0,8.856854E1,2.2092E0,1.1516109E0,1.1427388E0,6.2430983E0,1.9959938E1,3.052399E1,3.5152195E1,4.8153446E1,3.4840496E1,1.1492876E1,1.0827405E0,1.3899331E0,4.802646E0,2.62732E0,3.5231264E0,9.603372E0,7.4999623E0,3.408087E2,1.9673725E1,8.981563E0,1.1843422E1,3.7647872E0,5.062039E1],"tree_param":{"num_deleted":"0","num_feature":"36","num_nodes":"61","size_leaf_vector":"1"}},{"base_weights":[4.3316586E-3,5.683697E-1,-6.103969E-1,8.816369E-1,1.9412792E-1,4.319348E-1,-6.7309934E-1,1.2610304E-1,1.0440911E0,1.0241374E0,4.938169E-3,7.618038E-1,-3.0928397E-1,5.816208E-1,-7.084485E-1,9.742659E-1,-4.441395E-2,1.0627389E0,-3.615924E-1,1.0711812E0,-3.1476665E-2,2.3484173E-1,-4.4399366E-1,1.077141E0,8.030179E-2,2.716024E-1,-7.6578075E-1,8.760503E-1,-9.2741154E-2,-8.1563324E-1,-3.095572E-1,1.15111135E-1,3.0845407E-2,-3.2851398E-2,4.849871E-2,1.0828727E-1,9.244025E-3,-1.1106457E-1,8.292685E-2,1.5210517E-2,1.10592775E-1,-9.328592E-3,6.2863365E-2,-1.336795E-1,-2.0239424E-2,1.1306526E-1,2.5104074E-2,7.692195E-2,-5.403166E-2,-5.4997373E-2,9.909934E-2,-6.830732E-3,-1.24722734E-1,-5.02866E-2,1.2673078E-1,-6.792257E-2,-1.0861587E-1,-7.0390284E-2,1.320337E-2],"categories":[],"categories_nodes":[],"categories_segments":[],"categories_sizes":[],"default_left":[0,0,0,0,0,0,0,0,0,0,0,0,0,0,0,0,0,0,0,0,0,0,0,0,0,0,0,0,0,0,0,0,0,0,0,0,0,0,0,0,0,0,0,0,0,0,0,0,0,0,0,0,0,0,0,0,0,0,0],"id":9,"left_children":[1,3,5,7,9,11,13,15,17,19,21,23,25,27,29,31,33,35,37,39,-1,41,43,45,47,49,51,53,-1,55,57,-1,-1,-1,-1,-1,-1,-1,-1,-1,-1,-1,-1,-1,-1,-1,-1,-1,-1,-1,-1,-1,-1,-1,-1,-1,-1,-1,-1],"loss_changes":[3.3770248E2,5.9376114E1,3.0749802E1,3.376909E1,3.653857E1,6.8503566E0,1.9927063E1,7.2768874E0,6.339432E0,3.0578232E0,1.9768526E1,3.9989166E0,2.60597E0,6.413042E0,1.8063095E1,6.3585806E-1,6.566513E0,4.2850037E0,4.239772E0,1.1715927E0,0E0,1.6424004E1,1.372227E1,2.8713417E-1,3.4488184E0,3.3332646E0,1.7030971E0,6.6051617E0,0E0,1.1699707E1,1.617326E1,0E0,0E0,0E0,0E0,0E0,0E0,0E0,0E0,0E0,0E0,0E0,0E0,0E0,0E0,0E0,0E0,0E0,0E0,0E0,0E0,0E0,0E0,0E0,0E0,0E0,0E0,0E0,0E0],"parents":[2147483647,0,0,1,1,2,2,3,3,4,4,5,5,6,6,7,7,8,8,9,9,10,10,11,11,12,12,13,13,14,14,15,15,16,16,17,17,18,18,19,19,21,21,22,22,23,23,24,24,25,25,26,26,27,27,29,29,30,30],"right_children":[2,4,6,8,10,12,14,16,18,20,22,24,26,28,30,32,34,36,38,40,-1,42,44,46,48,50,52,54,-1,56,58,-1,-1,-1,-1,-1,-1,-1,-1,-1,-1,-1,-1,-1,-1,-1,-1,-1,-1,-1,-1,-1,-1,-1,-1,-1,-1,-1,-1],"split_conditions":[1.961135E-1,-8.0635977E-1,3.6397803E-1,-2.1527178E0,3.6397803E-1,2.5195E-1,-3.7471348E-1,3.6397803E-1,4.3532267E0,2.2863386E0,1.0554394E-1,8.90924E-1,5.3027123E-1,-1.53997E-1,4.4399047E-1,4.187956E-1,-9.110499E-2,6.365634E-1,6.945968E0,-8.236215E-3,-3.1476665E-2,-9.393448E-2,-7.590822E-1,1.7541919E0,5.156976E-1,-3.40596E-2,-4.3020698E-1,5.7795376E-1,-9.2741154E-2,1.7541919E0,-5.739941E-2,1.15111135E-1,3.0845407E-2,-3.2851398E-2,4.849871E-2,1.0828727E-1,9.244025E-3,-1.1106457E-1,8.292685E-2,1.5210517E-2,1.10592775E-1,-9.328592E-3,6.2863365E-2,-1.336795E-1,-2.0239424E-2,1.1306526E-1,2.5104074E-2,7.692195E-2,-5.403166E-2,-5.4997373E-2,9.909934E-2,-6.830732E-3,-1.24722734E-1,-5.02866E-2,1.2673078E-1,-6.792257E-2,-1.0861587E-1,-7.0390284E-2,1.320337E-2],"split_indices":[30,30,16,22,16,6,10,16,10,29,24,35,30,5,3,33,1,31,10,31,0,28,35,18,31,1,19,9,0,18,23,0,0,0,0,0,0,0,0,0,0,0,0,0,0,0,0,0,0,0,0,0,0,0,0,0,0,0,0],"split_type":[0,0,0,0,0,0,0,0,0,0,0,0,0,0,0,0,0,0,0,0,0,0,0,0,0,0,0,0,0,0,0,0,0,0,0,0,0,0,0,0,0,0,0,0,0,0,0,0,0,0,0,0,0,0,0,0,0,0,0],"sum_hessian":[9.719624E2,5.069192E2,4.650432E2,2.7520068E2,2.3171852E2,2.6053596E1,4.3898962E2,4.9015957E1,2.2618472E2,4.2193733E1,1.895248E2,1.8010504E1,8.043094E0,1.1605307E1,4.273843E2,7.415779E0,4.1600178E1,2.2346423E2,2.7204938E0,4.0954704E1,1.2390293E0,1.25653145E2,6.3871647E1,1.191622E1,6.0942836E0,3.7175665E0,4.3255277E0,1.006163E1,1.5436767E0,3.360427E2,9.134161E1,5.28354E0,2.1322396E0,2.7319035E1,1.4281142E1,2.1880792E2,4.6563015E0,1.7113874E0,1.0091063E0,1.6878263E0,3.926688E1,6.89574E1,5.6695744E1,1.263765E1,5.1233997E1,1.0845057E1,1.0711629E0,2.774741E0,3.3195426E0,1.8454652E0,1.8721013E0,2.232776E0,2.0927515E0,2.16085E0,7.90078E0,2.2573213E2,1.1031056E2,4.7938225E1,4.340339E1],"tree_param":{"num_deleted":"0","num_feature":"36","num_nodes":"59","size_leaf_vector":"1"}},{"base_weights":[4.400906E-3,6.49046E-1,-4.6575278E-1,1.1452192E0,4.7463727E-1,5.696261E-1,-5.483108E-1,1.1590967E0,-1.3209012E-2,2.5991923E-1,9.1301894E-1,6.5501106E-1,-1.0769067E-1,-6.935311E-1,-2.1728861E-1,1.1987702E-1,6.842373E-1,5.0093746E-1,-9.588286E-2,9.644627E-1,-1.2316223E-1,9.3387485E-1,7.1348906E-2,-7.476598E-1,1.3965486E-1,-4.671539E-2,-9.740166E-1,6.11361E-4,8.836251E-2,-1.48201585E-2,8.207278E-2,-3.000736E-3,-1.322303E-1,1.0176736E-1,1.6138671E-2,1.0454833E-1,1.8235506E-2,5.344481E-2,-7.094105E-2,-8.611309E-2,-4.664334E-2,-6.557445E-2,8.9621104E-2,6.999975E-2,-2.2176174E-2,3.2936487E-2,-1.1445407E-1],"categories":[],"categories_nodes":[],"categories_segments":[],"categories_sizes":[],"default_left":[0,0,0,0,0,0,0,0,0,0,0,0,0,0,0,0,0,0,0,0,0,0,0,0,0,0,0,0,0,0,0,0,0,0,0,0,0,0,0,0,0,0,0,0,0,0,0],"id":10,"left_children":[1,3,5,7,9,11,13,15,-1,17,19,21,-1,23,25,-1,27,29,31,33,-1,35,37,39,41,43,45,-1,-1,-1,-1,-1,-1,-1,-1,-1,-1,-1,-1,-1,-1,-1,-1,-1,-1,-1,-1],"loss_changes":[2.8598557E2,3.3893448E1,4.6953644E1,1.9751892E0,2.763916E1,6.439418E0,2.4166672E1,1.0974121E0,0E0,1.7214924E1,1.1886162E1,6.3456764E0,0E0,1.5941162E1,2.0052938E1,0E0,1.3708162E0,2.4929277E1,6.5594797E0,3.906311E0,0E0,2.038494E0,5.376069E0,1.0125458E1,1.3985344E1,1.6901289E1,6.731659E0,0E0,0E0,0E0,0E0,0E0,0E0,0E0,0E0,0E0,0E0,0E0,0E0,0E0,0E0,0E0,0E0,0E0,0E0,0E0,0E0],"parents":[2147483647,0,0,1,1,2,2,3,3,4,4,5,5,6,6,7,7,9,9,10,10,11,11,13,13,14,14,16,16,17,17,18,18,19,19,21,21,22,22,23,23,24,24,25,25,26,26],"right_children":[2,4,6,8,10,12,14,16,-1,18,20,22,-1,24,26,-1,28,30,32,34,-1,36,38,40,42,44,46,-1,-1,-1,-1,-1,-1,-1,-1,-1,-1,-1,-1,-1,-1,-1,-1,-1,-1,-1,-1],"split_conditions":[-1.3804425E-1,3.6397803E-1,3.6397803E-1,2.2863386E0,2.4346669E-1,2.8508928E0,5.013502E-1,1.5518136E0,-1.3209012E-2,-8.0635977E-1,4.238841E0,8.90924E-1,-1.0769067E-1,2.7511828E0,1.7541919E0,1.1987702E-1,-9.789304E-2,-5.562907E-1,3.3618846E0,1.0554394E-1,-1.2316223E-1,7.8382987E-1,5.874531E-1,3.9306524E-1,9.151432E-1,1.0554394E-1,1.7820092E-1,6.11361E-4,8.836251E-2,-1.48201585E-2,8.207278E-2,-3.000736E-3,-1.322303E-1,1.0176736E-1,1.6138671E-2,1.0454833E-1,1.8235506E-2,5.344481E-2,-7.094105E-2,-8.611309E-2,-4.664334E-2,-6.557445E-2,8.9621104E-2,6.999975E-2,-2.2176174E-2,3.2936487E-2,-1.1445407E-1],"split_indices":[30,16,16,29,19,7,29,35,0,30,10,35,0,15,18,0,22,28,10,24,0,6,31,3,13,24,31,0,0,0,0,0,0,0,0,0,0,0,0,0,0,0,0,0,0,0,0],"split_type":[0,0,0,0,0,0,0,0,0,0,0,0,0,0,0,0,0,0,0,0,0,0,0,0,0,0,0,0,0,0,0,0,0,0,0,0,0,0,0,0,0,0,0,0,0,0,0],"sum_hessian":[9.415931E2,3.9694568E2,5.446474E2,1.0179217E2,2.9515353E2,3.9785744E1,5.0486166E2,1.0078967E2,1.0024941E0,1.991858E2,9.596772E1,3.8396774E1,1.388971E0,3.5015338E2,1.5470827E2,9.161127E1,9.178407E0,1.1850399E2,8.068181E1,9.425705E1,1.710664E0,2.557666E1,1.2820115E1,3.2888943E2,2.1263966E1,1.2711675E2,2.7591513E1,2.3197002E0,6.858706E0,3.9288742E1,7.921525E1,7.754125E1,3.140557E0,8.814917E1,6.1078796E0,2.1928844E1,3.6478148E0,8.245099E0,4.5750165E0,2.328682E2,9.602124E1,1.0430838E1,1.0833128E1,2.357055E1,1.03546196E2,3.0844417E0,2.450707E1],"tree_param":{"num_deleted":"0","num_feature":"36","num_nodes":"47","size_leaf_vector":"1"}},{"base_weights":[4.3618656E-3,4.9885336E-1,-5.309878E-1,7.979768E-1,1.6566326E-1,-6.0342854E-1,1.7982548E-1,1.0784705E-1,9.6242446E-1,9.297877E-1,5.7730395E-3,-7.129907E-1,-9.6967235E-2,7.4684274E-1,-2.793899E-1,5.7653105E-1,-1.7506684E-1,9.8148733E-1,-3.4631744E-1,9.767448E-1,-2.7997663E-2,5.7824817E-2,-1.4612733E-1,-7.416535E-1,3.6034656E-1,5.808608E-1,-4.3723348E-1,1.1282661E0,-8.815648E-3,-6.3933724E-1,4.3591464E-1,-3.8711842E-2,8.608422E-2,-4.8842583E-2,4.801632E-2,1.0012167E-1,-1.6732259E-2,-9.7615786E-2,5.052897E-2,8.300799E-3,1.0139096E-1,-1.4348984E-2,4.8479166E-2,9.303063E-4,-7.7768005E-2,-1.0195825E-1,1.06951885E-1,-6.3062005E-2,1.0395284E-1,-1.5597629E-2,-1.1332419E-1,1.6208352E-1,4.0394407E-2,8.185304E-2,-8.4116206E-2,2.1157524E-2,-9.438031E-2,1.3085866E-1,-2.2770105E-2],"categories":[],"categories_nodes":[],"categories_segments":[],"categories_sizes":[],"default_left":[0,0,0,0,0,0,0,0,0,0,0,0,0,0,0,0,0,0,0,0,0,0,0,0,0,0,0,0,0,0,0,0,0,0,0,0,0,0,0,0,0,0,0,0,0,0,0,0,0,0,0,0,0,0,0,0,0,0,0],"id":11,"left_children":[1,3,5,7,9,11,13,15,17,19,21,23,25,27,29,31,33,35,37,39,-1,41,-1,43,45,47,49,51,53,55,57,-1,-1,-1,-1,-1,-1,-1,-1,-1,-1,-1,-1,-1,-1,-1,-1,-1,-1,-1,-1,-1,-1,-1,-1,-1,-1,-1,-1],"loss_changes":[2.4207326E2,4.7243553E1,2.271753E1,2.8293518E1,2.7622545E1,2.2054306E1,1.0983186E1,6.6347985E0,5.3780365E0,2.4959412E0,1.4441286E1,1.0346802E1,1.6875813E1,5.425311E0,6.3526897E0,5.4788637E0,6.701107E0,4.684784E0,2.4447958E0,1.1741791E0,0E0,1.5758744E1,0E0,8.649429E0,1.008841E1,1.4278193E1,9.327625E0,3.8028345E0,5.7119374E0,4.3705397E0,5.215724E0,0E0,0E0,0E0,0E0,0E0,0E0,0E0,0E0,0E0,0E0,0E0,0E0,0E0,0E0,0E0,0E0,0E0,0E0,0E0,0E0,0E0,0E0,0E0,0E0,0E0,0E0,0E0,0E0],"parents":[2147483647,0,0,1,1,2,2,3,3,4,4,5,5,6,6,7,7,8,8,9,9,10,10,11,11,12,12,13,13,14,14,15,15,16,16,17,17,18,18,19,19,21,21,23,23,24,24,25,25,26,26,27,27,28,28,29,29,30,30],"right_children":[2,4,6,8,10,12,14,16,18,20,22,24,26,28,30,32,34,36,38,40,-1,42,-1,44,46,48,50,52,54,56,58,-1,-1,-1,-1,-1,-1,-1,-1,-1,-1,-1,-1,-1,-1,-1,-1,-1,-1,-1,-1,-1,-1,-1,-1,-1,-1,-1,-1],"split_conditions":[1.961135E-1,-8.0635977E-1,2.7511828E0,-2.1527178E0,3.6397803E-1,5.7309103E-1,5.3027123E-1,2.4001474E-2,4.3532267E0,2.2863386E0,3.3618846E0,2.8034267E0,8.64429E-1,2.4635188E-1,4.187956E-1,-1.0099689E0,-9.110499E-2,7.240369E-1,6.39057E0,-8.236215E-3,-2.7997663E-2,-2.6002776E-2,-1.4612733E-1,1.7820092E-1,-5.739941E-2,3.130719E-1,5.0259405E-1,3.4535742E-1,3.6397803E-1,3.6397803E-1,-5.078784E-1,-3.8711842E-2,8.608422E-2,-4.8842583E-2,4.801632E-2,1.0012167E-1,-1.6732259E-2,-9.7615786E-2,5.052897E-2,8.300799E-3,1.0139096E-1,-1.4348984E-2,4.8479166E-2,9.303063E-4,-7.7768005E-2,-1.0195825E-1,1.06951885E-1,-6.3062005E-2,1.0395284E-1,-1.5597629E-2,-1.1332419E-1,1.6208352E-1,4.0394407E-2,8.185304E-2,-8.4116206E-2,2.1157524E-2,-9.438031E-2,1.3085866E-1,-2.2770105E-2],"split_indices":[30,30,15,22,16,21,30,6,10,29,10,19,30,29,33,33,1,22,11,31,0,19,0,31,23,22,12,35,16,16,6,0,0,0,0,0,0,0,0,0,0,0,0,0,0,0,0,0,0,0,0,0,0,0,0,0,0,0,0],"split_type":[0,0,0,0,0,0,0,0,0,0,0,0,0,0,0,0,0,0,0,0,0,0,0,0,0,0,0,0,0,0,0,0,0,0,0,0,0,0,0,0,0,0,0,0,0,0,0,0,0,0,0,0,0,0,0,0,0,0,0],"sum_hessian":[9.124294E2,4.743501E2,4.3807928E2,2.492181E2,2.2513202E2,3.9769977E2,4.0379517E1,4.827605E1,2.0094205E2,3.812332E1,1.870087E2,3.2663208E2,7.10677E1,1.7788624E1,2.259089E1,1.7781248E1,3.0494802E1,1.9830363E2,2.6384015E0,3.6884274E1,1.2390482E0,1.8152853E2,5.480169E0,3.1843744E2,8.194645E0,2.3515844E1,4.755186E1,1.1493911E1,6.2947135E0,1.5099098E1,7.4917927E0,3.9685545E0,1.3812694E1,2.0801306E1,9.693499E0,1.9508183E2,3.2218027E0,1.4326061E0,1.2057953E0,1.6016392E0,3.5282635E1,1.2381415E2,5.771438E1,1.4611406E1,3.0382602E2,2.6331918E0,5.5614533E0,6.355125E0,1.7160719E1,3.473823E1,1.2813627E1,6.10472E0,5.38919E0,3.1651638E0,3.12955E0,4.0593195E0,1.1039779E1,2.8163347E0,4.675458E0],"tree_param":{"num_deleted":"0","num_feature":"36","num_nodes":"59","size_leaf_vector":"1"}},{"base_weights":[4.403687E-3,6.945902E-1,-3.33523E-1,4.7557855E-1,1.0228075E0,-6.485257E-2,-6.2395126E-1,1.1284904E-1,7.771925E-1,1.0433874E0,-4.3836266E-2,-2.1011853E-1,7.370321E-1,-4.5397004E-1,-9.6118504E-1,9.2554075E-1,-7.2663255E-2,8.1953883E-1,-1.2586692E-1,1.0809578E0,4.3939537E-1,-3.32776E-1,7.6148987E-1,8.03358E-1,-9.858727E-2,3.7245306E-1,-5.635228E-1,-9.9457306E-1,1.1859783E-1,1.0119672E-1,-3.3869569E-3,1.14788925E-2,-9.8679475E-2,1.0540853E-1,4.9784552E-2,1.10749625E-1,2.3879034E-2,7.8618445E-2,-7.518105E-2,-4.834547E-2,5.5344296E-3,-5.314746E-2,9.198983E-2,8.792978E-2,-7.488669E-2,1.1871362E-1,-1.1396932E-2,-6.461592E-2,1.6995313E-2,-5.41339E-2,-1.0974975E-1,1.24224864E-1,-8.2131155E-2],"categories":[],"categories_nodes":[],"categories_segments":[],"categories_sizes":[],"default_left":[0,0,0,0,0,0,0,0,0,0,0,0,0,0,0,0,0,0,0,0,0,0,0,0,0,0,0,0,0,0,0,0,0,0,0,0,0,0,0,0,0,0,0,0,0,0,0,0,0,0,0,0,0],"id":12,"left_children":[1,3,5,7,9,11,13,15,17,19,-1,21,23,25,27,29,31,33,-1,35,37,39,41,43,-1,45,47,49,51,-1,-1,-1,-1,-1,-1,-1,-1,-1,-1,-1,-1,-1,-1,-1,-1,-1,-1,-1,-1,-1,-1,-1,-1],"loss_changes":[2.0682144E2,2.0464996E1,4.641075E1,1.924223E1,3.9389877E0,3.6306595E1,1.5955421E1,1.2337168E1,9.333572E0,2.1225586E0,0E0,3.1659634E1,6.256653E0,1.7594543E1,3.5405426E0,1.2944536E0,1.1626151E1,6.638813E0,0E0,2.1287766E0,4.0562124E0,1.3751577E1,6.601345E0,6.1513767E0,0E0,9.280266E0,1.0410183E1,3.7066422E0,4.9711614E0,0E0,0E0,0E0,0E0,0E0,0E0,0E0,0E0,0E0,0E0,0E0,0E0,0E0,0E0,0E0,0E0,0E0,0E0,0E0,0E0,0E0,0E0,0E0,0E0],"parents":[2147483647,0,0,1,1,2,2,3,3,4,4,5,5,6,6,7,7,8,8,9,9,11,11,12,12,13,13,14,14,15,15,16,16,17,17,19,19,20,20,21,21,22,22,23,23,25,25,26,26,27,27,28,28],"right_children":[2,4,6,8,10,12,14,16,18,20,-1,22,24,26,28,30,32,34,-1,36,38,40,42,44,-1,46,48,50,52,-1,-1,-1,-1,-1,-1,-1,-1,-1,-1,-1,-1,-1,-1,-1,-1,-1,-1,-1,-1,-1,-1,-1,-1],"split_conditions":[-4.72202E-1,2.4346669E-1,5.3027123E-1,1.2607858E-1,4.238841E0,2.7511828E0,1.7541919E0,3.6397803E-1,7.0996695E0,1.7541919E0,-4.3836266E-2,3.130719E-1,4.238841E0,4.3261924E-1,1.259193E0,1.795365E0,-5.486067E-1,1.8328367E-1,-1.2586692E-1,1.0554394E-1,-8.0635977E-1,-2.6002776E-2,-4.3020698E-1,2.8508928E0,-9.858727E-2,-1.1159414E0,4.069181E0,-1.3113909E0,-6.29451E-1,1.0119672E-1,-3.3869569E-3,1.14788925E-2,-9.8679475E-2,1.0540853E-1,4.9784552E-2,1.10749625E-1,2.3879034E-2,7.8618445E-2,-7.518105E-2,-4.834547E-2,5.5344296E-3,-5.314746E-2,9.198983E-2,8.792978E-2,-7.488669E-2,1.1871362E-1,-1.1396932E-2,-6.461592E-2,1.6995313E-2,-5.41339E-2,-1.0974975E-1,1.24224864E-1,-8.2131155E-2],"split_indices":[30,19,30,3,10,15,18,16,26,18,0,22,10,24,26,34,24,23,0,24,30,19,19,7,0,9,21,9,6,0,0,0,0,0,0,0,0,0,0,0,0,0,0,0,0,0,0,0,0,0,0,0,0],"split_type":[0,0,0,0,0,0,0,0,0,0,0,0,0,0,0,0,0,0,0,0,0,0,0,0,0,0,0,0,0,0,0,0,0,0,0,0,0,0,0,0,0,0,0,0,0,0,0,0,0,0,0,0,0],"sum_hessian":[8.8476764E2,2.9046405E2,5.943035E2,1.7568356E2,1.1478051E2,3.0935114E2,2.8495242E2,8.038474E1,9.529882E1,1.13468285E2,1.3122249E0,2.6253027E2,4.6820873E1,1.910172E2,9.393522E1,1.4197828E1,6.618691E1,9.3942245E1,1.3565694E0,1.0608006E2,7.3882213E0,2.3368675E2,2.8843513E1,4.5599182E1,1.2216926E0,2.207703E1,1.6894017E2,9.1194305E1,2.7409115E0,1.2974288E1,1.2235403E0,5.5649773E1,1.0537137E1,5.3013474E1,4.0928776E1,1.02533936E2,3.5461223E0,5.9856596E0,1.4025617E0,1.6815778E2,6.552897E1,2.8910484E0,2.5952465E1,4.388568E1,1.7135012E0,7.7150145E0,1.4362015E1,1.5194095E2,1.6999226E1,1.8035114E1,7.315919E1,1.1019156E0,1.6389959E0],"tree_param":{"num_deleted":"0","num_feature":"36","num_nodes":"53","size_leaf_vector":"1"}},{"base_weights":[4.304736E-3,5.415618E-1,-3.7456918E-1,1.0508127E0,3.7796435E-1,4.973546E-1,-4.4341788E-1,1.0954087E0,5.4143596E-1,1.9594485E-1,7.837125E-1,5.807469E-1,-1.0072517E-1,-3.1594685E-1,-7.670857E-1,1.125122E0,4.6775323E-1,8.378058E-2,-2.857762E-2,-2.7494676E-2,4.476115E-1,8.3586997E-1,-1.1123873E-1,8.5818845E-1,2.9555686E-2,-5.532312E-1,-5.4511108E-2,-9.519204E-1,-2.5466508E-1,1.13517225E-1,3.744114E-2,8.882246E-2,-3.2548167E-2,-6.956045E-2,4.879124E-2,7.197971E-3,-5.7909172E-2,8.969436E-2,9.743477E-3,9.287384E-2,3.0932873E-2,1.0195173E-1,2.928101E-2,-3.874157E-2,8.040709E-2,-5.9707582E-2,8.411678E-2,-4.530391E-2,1.3925797E-2,7.0506155E-2,-9.850428E-2,-8.046383E-2,4.9466964E-2],"categories":[],"categories_nodes":[],"categories_segments":[],"categories_sizes":[],"default_left":[0,0,0,0,0,0,0,0,0,0,0,0,0,0,0,0,0,0,0,0,0,0,0,0,0,0,0,0,0,0,0,0,0,0,0,0,0,0,0,0,0,0,0,0,0,0,0,0,0,0,0,0,0],"id":13,"left_children":[1,3,5,7,9,11,13,15,17,19,21,23,-1,25,27,29,31,-1,33,35,37,39,-1,41,43,45,47,49,51,-1,-1,-1,-1,-1,-1,-1,-1,-1,-1,-1,-1,-1,-1,-1,-1,-1,-1,-1,-1,-1,-1,-1,-1],"loss_changes":[1.754171E2,2.9294632E1,3.0559433E1,1.362587E0,1.9883053E1,5.284815E0,1.9104942E1,9.31839E-1,1.5288072E0,1.0618696E1,9.205673E0,5.4989176E0,0E0,2.0945808E1,1.224057E1,1.3282776E-1,2.0386486E0,0E0,1.7223454E0,5.5755177E0,1.3879156E1,3.7230911E0,0E0,1.889986E0,4.5521193E0,1.1332321E1,1.2572237E1,5.9904556E0,1.5359186E1,0E0,0E0,0E0,0E0,0E0,0E0,0E0,0E0,0E0,0E0,0E0,0E0,0E0,0E0,0E0,0E0,0E0,0E0,0E0,0E0,0E0,0E0,0E0,0E0],"parents":[2147483647,0,0,1,1,2,2,3,3,4,4,5,5,6,6,7,7,8,8,9,9,10,10,11,11,13,13,14,14,15,15,16,16,18,18,19,19,20,20,21,21,23,23,24,24,25,25,26,26,27,27,28,28],"right_children":[2,4,6,8,10,12,14,16,18,20,22,24,-1,26,28,30,32,-1,34,36,38,40,-1,42,44,46,48,50,52,-1,-1,-1,-1,-1,-1,-1,-1,-1,-1,-1,-1,-1,-1,-1,-1,-1,-1,-1,-1,-1,-1,-1,-1],"split_conditions":[-1.3804425E-1,3.6397803E-1,3.6397803E-1,1.5518136E0,2.4346669E-1,2.8508928E0,1.7541919E0,1.4491206E0,-5.739941E-2,-9.393448E-2,4.238841E0,8.90924E-1,-1.0072517E-1,2.4635188E-1,3.9306524E-1,2.151521E0,2.4592644E-1,8.378058E-2,-9.393448E-2,1.0340024E0,-1.1405175E0,3.420169E-1,-1.1123873E-1,3.2793283E-1,1.7560796E-1,2.321136E0,1.2063996E-1,-3.7471348E-1,2.1355242E-1,1.13517225E-1,3.744114E-2,8.882246E-2,-3.2548167E-2,-6.956045E-2,4.879124E-2,7.197971E-3,-5.7909172E-2,8.969436E-2,9.743477E-3,9.287384E-2,3.0932873E-2,1.0195173E-1,2.928101E-2,-3.874157E-2,8.040709E-2,-5.9707582E-2,8.411678E-2,-4.530391E-2,1.3925797E-2,7.0506155E-2,-9.850428E-2,-8.046383E-2,4.9466964E-2],"split_indices":[30,16,16,35,19,7,18,1,23,28,10,35,0,29,3,6,25,0,28,9,30,25,0,6,8,21,3,10,2,0,0,0,0,0,0,0,0,0,0,0,0,0,0,0,0,0,0,0,0,0,0,0,0],"split_type":[0,0,0,0,0,0,0,0,0,0,0,0,0,0,0,0,0,0,0,0,0,0,0,0,0,0,0,0,0,0,0,0,0,0,0,0,0,0,0,0,0,0,0,0,0,0,0,0,0,0,0,0,0],"sum_hessian":[8.5978076E2,3.553922E2,5.0438855E2,8.509206E1,2.7030014E2,3.6457264E1,4.6793127E2,7.71841E1,7.907962E0,1.8761746E2,8.268268E1,3.5124523E1,1.3327433E0,3.3713324E2,1.3079802E2,7.293858E1,4.2455087E0,4.893738E0,3.0142243E0,9.9853966E1,8.7763504E1,8.101335E1,1.6693321E0,2.2993696E1,1.2130826E1,1.7614467E2,1.6098859E2,9.549458E1,3.530344E1,7.146964E1,1.4689445E0,2.6964483E0,1.5490607E0,1.1640748E0,1.8501494E0,8.5334366E1,1.4519597E1,3.7755646E1,5.000786E1,6.821764E1,1.2795703E1,1.7264174E1,5.729522E0,8.2104225E0,3.9204032E0,1.713293E2,4.8153725E0,5.222943E1,1.0875915E2,1.473918E0,9.402067E1,2.0317577E1,1.4985863E1],"tree_param":{"num_deleted":"0","num_feature":"36","num_nodes":"53","size_leaf_vector":"1"}},{"base_weights":[4.6102395E-3,4.6791056E-1,-3.8749048E-1,1.0117687E0,3.2112128E-1,-4.84055E-1,3.389333E-1,1.0671377E0,4.3502966E-1,5.3999084E-1,-1.4498811E-2,6.1767405E-1,-5.2139354E-1,7.0836145E-1,-2.8770107E-1,1.0775622E0,1.6829567E-2,8.031876E-1,-1.626947E-1,-6.292718E-2,7.1420014E-1,-3.794686E-1,4.3085557E-1,-9.192792E-2,8.714046E-1,-6.2559617E-1,-1.374664E-1,-6.5903716E-2,7.8252876E-1,2.2261316E-1,-8.014276E-1,1.0871589E-1,3.567369E-2,9.2615955E-2,1.3444634E-2,7.141464E-2,-8.9869685E-2,8.6841084E-2,-1.8261109E-2,1.1221909E-1,5.6816377E-2,-1.0490687E-1,-1.2306287E-2,6.9781564E-2,-5.0337356E-2,-1.0142863E-2,1.10552065E-1,-8.229291E-2,-4.0528525E-2,-6.1445683E-2,3.4156356E-2,3.0504088E-3,9.397585E-2,1.1382214E-1,-3.3160422E-2,-1.11528434E-1,6.18415E-2],"categories":[],"categories_nodes":[],"categories_segments":[],"categories_sizes":[],"default_left":[0,0,0,0,0,0,0,0,0,0,0,0,0,0,0,0,0,0,0,0,0,0,0,0,0,0,0,0,0,0,0,0,0,0,0,0,0,0,0,0,0,0,0,0,0,0,0,0,0,0,0,0,0,0,0,0,0],"id":14,"left_children":[1,3,5,7,9,11,13,15,17,19,21,23,25,27,29,31,-1,33,35,37,39,41,43,-1,45,47,49,-1,51,53,55,-1,-1,-1,-1,-1,-1,-1,-1,-1,-1,-1,-1,-1,-1,-1,-1,-1,-1,-1,-1,-1,-1,-1,-1,-1,-1],"loss_changes":[1.5218518E2,3.0331047E1,3.199276E1,2.1271896E0,2.2327946E1,1.6814522E1,1.26647415E1,5.0598145E-1,2.0664153E0,1.9365025E1,1.981654E1,6.104583E0,1.5449081E1,3.9793358E0,5.598681E0,1.1250305E-1,0E0,3.3699822E-1,3.3422775E0,4.8572493E0,7.869934E0,1.1371442E1,1.4050095E1,0E0,2.8875856E0,1.2932312E1,1.9443665E1,0E0,3.8558464E0,6.037847E0,5.377966E0,0E0,0E0,0E0,0E0,0E0,0E0,0E0,0E0,0E0,0E0,0E0,0E0,0E0,0E0,0E0,0E0,0E0,0E0,0E0,0E0,0E0,0E0,0E0,0E0,0E0,0E0],"parents":[2147483647,0,0,1,1,2,2,3,3,4,4,5,5,6,6,7,7,8,8,9,9,10,10,11,11,12,12,13,13,14,14,15,15,17,17,18,18,19,19,20,20,21,21,22,22,24,24,25,25,26,26,28,28,29,29,30,30],"right_children":[2,4,6,8,10,12,14,16,18,20,22,24,26,28,30,32,-1,34,36,38,40,42,44,-1,46,48,50,-1,52,54,56,-1,-1,-1,-1,-1,-1,-1,-1,-1,-1,-1,-1,-1,-1,-1,-1,-1,-1,-1,-1,-1,-1,-1,-1,-1,-1],"split_conditions":[1.0554394E-1,3.6397803E-1,2.7511828E0,1.5518136E0,-4.72202E-1,-3.7471348E-1,5.3027123E-1,2.0313401E0,-2.980825E-1,-2.1527178E0,1.365865E0,-1.191724E0,4.4399047E-1,2.7405944E-2,7.8890747E-1,2.151521E0,1.6829567E-2,7.774688E-1,9.641339E-2,-3.5612378E-1,-1.0286398E0,1.3715395E-1,4.883476E-1,-9.192792E-2,6.3287266E-2,2.4635188E-1,-5.739941E-2,-6.5903716E-2,-7.358269E-1,-6.29451E-1,1.4440401E0,1.0871589E-1,3.567369E-2,9.2615955E-2,1.3444634E-2,7.141464E-2,-8.9869685E-2,8.6841084E-2,-1.8261109E-2,1.1221909E-1,5.6816377E-2,-1.0490687E-1,-1.2306287E-2,6.9781564E-2,-5.0337356E-2,-1.0142863E-2,1.10552065E-1,-8.229291E-2,-4.0528525E-2,-6.1445683E-2,3.4156356E-2,3.0504088E-3,9.397585E-2,1.1382214E-1,-3.3160422E-2,-1.11528434E-1,6.18415E-2],"split_indices":[24,16,15,35,30,10,30,29,23,22,17,6,3,25,35,6,0,12,3,11,29,25,25,0,3,29,23,0,6,6,12,0,0,0,0,0,0,0,0,0,0,0,0,0,0,0,0,0,0,0,0,0,0,0,0,0,0],"split_type":[0,0,0,0,0,0,0,0,0,0,0,0,0,0,0,0,0,0,0,0,0,0,0,0,0,0,0,0,0,0,0,0,0,0,0,0,0,0,0,0,0,0,0,0,0,0,0,0,0,0,0,0,0,0,0,0,0],"sum_hessian":[8.3574756E2,3.830033E2,4.5274426E2,8.015059E1,3.028527E2,3.9991644E2,5.2827816E1,7.235404E1,7.796545E0,1.8294133E2,1.1991136E2,1.2599742E1,3.873167E2,3.3152534E1,1.9675282E1,7.1327965E1,1.0260754E0,4.612075E0,3.18447E0,4.1153313E1,1.4178802E2,6.598463E1,5.392674E1,1.4136447E0,1.1186097E1,3.041399E2,8.317682E1,1.2999499E0,3.1852585E1,1.0154701E1,9.52058E0,6.988928E1,1.4386843E0,3.5705686E0,1.0415064E0,1.4667467E0,1.7177234E0,3.9739053E0,3.7179405E1,3.5612087E1,1.06175934E2,1.7414764E1,4.8569862E1,4.2138527E1,1.1788213E1,2.2797415E0,8.906356E0,1.5899367E2,1.4514622E2,4.1535473E1,4.1641346E1,5.71447E0,2.6138115E1,3.4316368E0,6.723064E0,7.972711E0,1.5478694E0],"tree_param":{"num_deleted":"0","num_feature":"36","num_nodes":"57","size_leaf_vector":"1"}},{"base_weights":[4.809314E-3,5.867624E-1,-2.6530257E-1,3.7874016E-1,9.302162E-1,-4.0150702E-2,-5.210466E-1,5.1376663E-2,6.724798E-1,9.5272857E-1,-4.381456E-2,-1.5751006E-1,6.19958E-1,-3.632542E-1,-8.5820705E-1,3.6629894E-1,-3.0168957E-1,7.1852905E-1,-1.2787311E-1,9.957979E-1,3.1987175E-1,-2.6839918E-1,7.132227E-1,6.8522394E-1,-9.585174E-2,3.7961137E-1,-4.6764776E-1,-8.935238E-1,1.6387929E-1,5.5239875E-2,-3.5365842E-2,-5.419425E-2,5.027706E-2,9.720636E-2,3.967475E-2,1.0270145E-1,1.4898549E-2,6.898727E-2,-7.6811925E-2,-1.9128058E-2,-9.800071E-2,-4.565112E-2,8.5211724E-2,7.583965E-2,-7.2811775E-2,-1.1084825E-1,6.2107183E-2,-2.2551458E-2,-6.777114E-2,-4.1508015E-2,-1.0079791E-1,1.1164311E-1,-7.4258685E-2],"categories":[],"categories_nodes":[],"categories_segments":[],"categories_sizes":[],"default_left":[0,0,0,0,0,0,0,0,0,0,0,0,0,0,0,0,0,0,0,0,0,0,0,0,0,0,0,0,0,0,0,0,0,0,0,0,0,0,0,0,0,0,0,0,0,0,0,0,0,0,0,0,0],"id":15,"left_children":[1,3,5,7,9,11,13,15,17,19,-1,21,23,25,27,29,31,33,-1,35,37,39,41,43,-1,45,47,49,51,-1,-1,-1,-1,-1,-1,-1,-1,-1,-1,-1,-1,-1,-1,-1,-1,-1,-1,-1,-1,-1,-1,-1,-1],"loss_changes":[1.2811769E2,1.8107285E1,3.2033165E1,1.560079E1,3.3985443E0,2.3116116E1,1.3549751E1,8.781028E0,8.611668E0,2.2850952E0,0E0,2.462689E1,5.298319E0,1.4075983E1,3.1182594E0,5.778242E0,7.483931E0,6.4904213E0,0E0,2.1986847E0,3.5731592E0,1.2171753E1,5.078188E0,5.0869102E0,0E0,8.821218E0,7.8624344E0,3.9479141E0,3.9329846E0,0E0,0E0,0E0,0E0,0E0,0E0,0E0,0E0,0E0,0E0,0E0,0E0,0E0,0E0,0E0,0E0,0E0,0E0,0E0,0E0,0E0,0E0,0E0,0E0],"parents":[2147483647,0,0,1,1,2,2,3,3,4,4,5,5,6,6,7,7,8,8,9,9,11,11,12,12,13,13,14,14,15,15,16,16,17,17,19,19,20,20,21,21,22,22,23,23,25,25,26,26,27,27,28,28],"right_children":[2,4,6,8,10,12,14,16,18,20,-1,22,24,26,28,30,32,34,-1,36,38,40,42,44,-1,46,48,50,52,-1,-1,-1,-1,-1,-1,-1,-1,-1,-1,-1,-1,-1,-1,-1,-1,-1,-1,-1,-1,-1,-1,-1,-1],"split_conditions":[-4.72202E-1,2.4346669E-1,5.3027123E-1,1.2607858E-1,4.238841E0,2.7511828E0,1.7541919E0,1.7596716E-1,7.0996695E0,1.7541919E0,-4.381456E-2,3.130719E-1,4.238841E0,4.3261924E-1,1.259193E0,-5.486067E-1,1.9995553E0,1.8328367E-1,-1.2787311E-1,1.0554394E-1,-8.0635977E-1,1.0660874E0,-4.3020698E-1,2.8508928E0,-9.585174E-2,-8.2197356E-1,-2.2219928E-1,-1.3113909E0,-6.29451E-1,5.5239875E-2,-3.5365842E-2,-5.419425E-2,5.027706E-2,9.720636E-2,3.967475E-2,1.0270145E-1,1.4898549E-2,6.898727E-2,-7.6811925E-2,-1.9128058E-2,-9.800071E-2,-4.565112E-2,8.5211724E-2,7.583965E-2,-7.2811775E-2,-1.1084825E-1,6.2107183E-2,-2.2551458E-2,-6.777114E-2,-4.1508015E-2,-1.0079791E-1,1.1164311E-1,-7.4258685E-2],"split_indices":[30,19,30,3,10,15,18,6,26,18,0,22,10,24,26,24,6,23,0,24,30,12,19,7,0,33,10,9,6,0,0,0,0,0,0,0,0,0,0,0,0,0,0,0,0,0,0,0,0,0,0,0,0],"split_type":[0,0,0,0,0,0,0,0,0,0,0,0,0,0,0,0,0,0,0,0,0,0,0,0,0,0,0,0,0,0,0,0,0,0,0,0,0,0,0,0,0,0,0,0,0,0,0,0,0,0,0,0,0],"sum_hessian":[8.130468E2,2.5737115E2,5.5567566E2,1.6159773E2,9.577343E1,2.9612775E2,2.595479E2,7.6980415E1,8.461731E1,9.452209E1,1.251342E0,2.5207352E2,4.4054237E1,1.7821843E2,8.13295E1,4.0668293E1,3.6312126E1,8.328355E1,1.3337674E0,8.796229E1,6.559797E0,2.242116E2,2.786193E1,4.2848457E1,1.20578E0,2.1634043E1,1.5658438E2,7.873472E1,2.5947833E0,3.2500153E1,8.168141E0,2.82127E1,8.099424E0,4.5451233E1,3.783231E1,8.4629715E1,3.3325703E0,5.168148E0,1.391649E0,2.0343379E2,2.0777794E1,2.7144861E0,2.5147446E1,4.1179867E1,1.6685915E0,2.518998E0,1.9115044E1,7.3702995E1,8.288139E1,1.6092352E1,6.2642365E1,1.152285E0,1.4424984E0],"tree_param":{"num_deleted":"0","num_feature":"36","num_nodes":"53","size_leaf_vector":"1"}},{"base_weights":[4.2435187E-3,4.1398302E-1,-3.3756295E-1,9.636103E-1,2.7570295E-1,4.6425548E-1,-4.055064E-1,1.0234414E0,3.72318E-1,4.485354E-2,5.747403E-1,8.1630963E-1,1.3813123E-1,6.132599E-1,-4.4157487E-1,1.0459207E0,4.3882266E-1,-3.2560626E-1,6.7419744E-1,-2.641076E-1,3.6821994E-1,6.9749945E-1,-3.1022635E-1,9.3390507E-1,-4.6007432E-2,-5.918622E-1,7.4567527E-1,-8.869102E-2,8.4235954E-1,-5.502348E-1,-6.0245916E-2,6.087442E-2,1.08024456E-1,-2.5818259E-2,7.811372E-2,-1.1222958E-1,6.1963536E-2,9.3180455E-2,-2.0673694E-2,-2.2810486E-3,-6.649264E-2,5.747162E-2,-5.441426E-2,8.186205E-2,-1.601981E-2,5.6500185E-2,-7.004773E-2,1.0427212E-1,5.5784374E-3,-8.806286E-2,6.86157E-2,9.5491715E-2,-2.2936312E-2,-7.4020214E-3,1.04646586E-1,-5.9122045E-2,2.9517416E-2,1.0568473E-2,-1.0486605E-1],"categories":[],"categories_nodes":[],"categories_segments":[],"categories_sizes":[],"default_left":[0,0,0,0,0,0,0,0,0,0,0,0,0,0,0,0,0,0,0,0,0,0,0,0,0,0,0,0,0,0,0,0,0,0,0,0,0,0,0,0,0,0,0,0,0,0,0,0,0,0,0,0,0,0,0,0,0,0,0],"id":16,"left_children":[1,3,5,7,9,11,13,15,17,19,21,23,25,27,29,31,33,35,37,39,41,43,45,47,-1,49,51,-1,53,55,57,-1,-1,-1,-1,-1,-1,-1,-1,-1,-1,-1,-1,-1,-1,-1,-1,-1,-1,-1,-1,-1,-1,-1,-1,-1,-1,-1,-1],"loss_changes":[1.1122615E2,2.7185814E1,2.3776833E1,2.173378E0,1.9992807E1,3.8242207E0,1.4957909E1,3.952179E-1,1.9485654E0,1.6555714E1,1.3931976E1,2.8741293E0,8.86982E0,5.588207E0,1.5986267E1,2.7078247E-1,1.1869571E0,3.06924E0,1.5665903E0,8.189011E0,1.5556048E1,1.1680988E1,5.8852215E0,1.3982687E0,0E0,3.99572E0,2.4254007E0,0E0,2.4589348E0,1.0595589E1,1.4356335E1,0E0,0E0,0E0,0E0,0E0,0E0,0E0,0E0,0E0,0E0,0E0,0E0,0E0,0E0,0E0,0E0,0E0,0E0,0E0,0E0,0E0,0E0,0E0,0E0,0E0,0E0,0E0,0E0],"parents":[2147483647,0,0,1,1,2,2,3,3,4,4,5,5,6,6,7,7,8,8,9,9,10,10,11,11,12,12,13,13,14,14,15,15,16,16,17,17,18,18,19,19,20,20,21,21,22,22,23,23,25,25,26,26,28,28,29,29,30,30],"right_children":[2,4,6,8,10,12,14,16,18,20,22,24,26,28,30,32,34,36,38,40,42,44,46,48,-1,50,52,-1,54,56,58,-1,-1,-1,-1,-1,-1,-1,-1,-1,-1,-1,-1,-1,-1,-1,-1,-1,-1,-1,-1,-1,-1,-1,-1,-1,-1,-1,-1],"split_conditions":[1.0554394E-1,3.6397803E-1,3.6397803E-1,1.5518136E0,-9.393448E-2,3.2445723E-1,-3.7471348E-1,3.3489194E0,-9.789304E-2,-2.9547223E-1,4.883476E-1,3.2970395E0,2.7511828E0,-1.191724E0,4.4399047E-1,-5.649417E-1,8.699844E-1,-2.6002776E-2,9.7153746E-2,1.7820092E-1,-2.2153138E-1,1.7541919E0,-6.8623936E-1,2.1087482E0,-4.6007432E-2,9.1714036E-1,7.0784706E-1,-8.869102E-2,6.3287266E-2,9.6636117E-1,7.3294234E-1,6.087442E-2,1.08024456E-1,-2.5818259E-2,7.811372E-2,-1.1222958E-1,6.1963536E-2,9.3180455E-2,-2.0673694E-2,-2.2810486E-3,-6.649264E-2,5.747162E-2,-5.441426E-2,8.186205E-2,-1.601981E-2,5.6500185E-2,-7.004773E-2,1.0427212E-1,5.5784374E-3,-8.806286E-2,6.86157E-2,9.5491715E-2,-2.2936312E-2,-7.4020214E-3,1.04646586E-1,-5.9122045E-2,2.9517416E-2,1.0568473E-2,-1.0486605E-1],"split_indices":[24,16,16,35,28,25,10,5,22,19,25,7,15,6,3,19,33,19,12,31,24,18,12,23,0,19,6,0,3,25,31,0,0,0,0,0,0,0,0,0,0,0,0,0,0,0,0,0,0,0,0,0,0,0,0,0,0,0,0],"split_type":[0,0,0,0,0,0,0,0,0,0,0,0,0,0,0,0,0,0,0,0,0,0,0,0,0,0,0,0,0,0,0,0,0,0,0,0,0,0,0,0,0,0,0,0,0,0,0,0,0,0,0,0,0,0,0,0,0,0,0],"sum_hessian":[7.9218195E2,3.6019186E2,4.3199008E2,7.120439E1,2.8898746E2,3.3290237E1,3.9869983E2,6.399778E1,7.20661E0,1.6373676E2,1.2525072E2,1.5285902E1,1.8004335E1,1.30857525E1,3.8561407E2,6.0868267E1,3.1295118E0,2.1522229E0,5.0543876E0,8.3827156E1,7.990959E1,1.10178955E2,1.5071765E1,1.4242075E1,1.0438274E0,8.189758E0,9.814578E0,1.3532478E0,1.1732505E1,2.997556E2,8.5858475E1,5.794912E0,5.5073353E1,1.1116976E0,2.0178142E0,1.0662398E0,1.085983E0,3.8660984E0,1.188289E0,5.298596E1,3.0841202E1,6.546328E1,1.4446312E1,9.658511E1,1.3593843E1,4.50977E0,1.05619955E1,1.2505015E1,1.7370591E0,6.933979E0,1.255779E0,8.097502E0,1.7170763E0,2.2532759E0,9.479228E0,2.861821E2,1.3573516E1,7.42815E1,1.1576971E1],"tree_param":{"num_deleted":"0","num_feature":"36","num_nodes":"59","size_leaf_vector":"1"}},{"base_weights":[4.444041E-3,4.8484161E-1,-2.5008386E-1,9.3961066E-1,3.5425153E-1,-4.1184363E-1,1.0637261E-1,9.750752E-1,3.7512967E-1,1.6160117E-1,6.835176E-1,-4.8446587E-1,2.667136E-1,5.046852E-1,-1.229828E-1,1.0299217E0,4.352884E-1,-8.155495E-2,8.8542335E-2,3.4421787E-1,-1.8176457E-1,7.568976E-1,-1.3889407E-1,-2.0543337E-1,-5.9235835E-1,4.100513E-1,-1.0626643E-1,-6.031462E-1,6.350178E-1,-1.2069541E-2,-9.353071E-1,1.0449847E-1,2.5036497E-2,-3.1233182E-2,6.314163E-2,-8.15093E-3,7.273366E-2,-4.078758E-2,5.7600845E-2,4.0493727E-2,9.673988E-2,-4.6180107E-2,7.517127E-3,-7.014278E-3,-6.812798E-2,-8.326185E-2,5.6491133E-2,-1.0125605E-1,3.7684012E-2,-3.6279503E-2,7.347573E-2,4.3288995E-2,-2.0171681E-2,2.9316772E-2,-1.0828103E-1],"categories":[],"categories_nodes":[],"categories_segments":[],"categories_sizes":[],"default_left":[0,0,0,0,0,0,0,0,0,0,0,0,0,0,0,0,0,0,0,0,0,0,0,0,0,0,0,0,0,0,0,0,0,0,0,0,0,0,0,0,0,0,0,0,0,0,0,0,0,0,0,0,0,0,0],"id":17,"left_children":[1,3,5,7,9,11,13,15,17,19,21,23,25,27,29,31,33,-1,-1,35,37,39,-1,41,43,45,-1,47,49,51,53,-1,-1,-1,-1,-1,-1,-1,-1,-1,-1,-1,-1,-1,-1,-1,-1,-1,-1,-1,-1,-1,-1,-1,-1],"loss_changes":[9.476527E1,1.560762E1,2.9255548E1,8.208618E-1,1.3219093E1,1.7311768E1,1.4581515E1,1.1843224E0,3.8386054E0,8.45739E0,1.280011E1,9.371445E0,6.9820642E0,8.796678E0,9.148228E0,3.1760025E-1,1.1970032E0,0E0,0E0,1.4370559E1,8.311314E0,5.1842155E0,0E0,6.47022E0,1.0487183E1,6.5769944E0,0E0,3.0483758E0,5.503889E0,7.720997E0,2.5281563E0,0E0,0E0,0E0,0E0,0E0,0E0,0E0,0E0,0E0,0E0,0E0,0E0,0E0,0E0,0E0,0E0,0E0,0E0,0E0,0E0,0E0,0E0,0E0,0E0],"parents":[2147483647,0,0,1,1,2,2,3,3,4,4,5,5,6,6,7,7,8,8,9,9,10,10,11,11,12,12,13,13,14,14,15,15,16,16,19,19,20,20,21,21,23,23,24,24,25,25,27,27,28,28,29,29,30,30],"right_children":[2,4,6,8,10,12,14,16,18,20,22,24,26,28,30,32,34,-1,-1,36,38,40,-1,42,44,46,-1,48,50,52,54,-1,-1,-1,-1,-1,-1,-1,-1,-1,-1,-1,-1,-1,-1,-1,-1,-1,-1,-1,-1,-1,-1,-1,-1],"split_conditions":[1.8274815E-1,3.6397803E-1,-2.6002776E-2,1.3607979E-1,1.8738662E-1,2.7511828E0,1.961135E-1,1.5518136E0,-1.6073751E-1,-1.1405175E0,3.7449627E0,-2.3706448E-1,4.238841E0,-2.980825E-1,1.7541919E0,2.151521E0,-2.3706448E-1,-8.155495E-2,8.8542335E-2,-1.7417529E0,1.4715694E0,-2.0394705E-1,-1.3889407E-1,-1.4815038E-1,-1.3804425E-1,9.641339E-2,-1.0626643E-1,8.90924E-1,-1.7651228E0,-8.877926E-1,-2.9845637E-1,1.0449847E-1,2.5036497E-2,-3.1233182E-2,6.314163E-2,-8.15093E-3,7.273366E-2,-4.078758E-2,5.7600845E-2,4.0493727E-2,9.673988E-2,-4.6180107E-2,7.517127E-3,-7.014278E-3,-6.812798E-2,-8.326185E-2,5.6491133E-2,-1.0125605E-1,3.7684012E-2,-3.6279503E-2,7.347573E-2,4.3288995E-2,-2.0171681E-2,2.9316772E-2,-1.0828103E-1],"split_indices":[31,16,19,21,3,15,30,35,19,30,32,11,10,23,18,6,11,0,0,22,33,6,0,1,30,3,0,35,12,6,10,0,0,0,0,0,0,0,0,0,0,0,0,0,0,0,0,0,0,0,0,0,0,0,0],"split_type":[0,0,0,0,0,0,0,0,0,0,0,0,0,0,0,0,0,0,0,0,0,0,0,0,0,0,0,0,0,0,0,0,0,0,0,0,0,0,0,0,0,0,0,0,0,0,0,0,0,0,0,0,0,0,0],"sum_hessian":[7.730286E2,2.6741083E2,5.0561777E2,5.827565E1,2.0913518E2,3.4768372E2,1.5793408E2,5.414642E1,4.129228E0,1.3287949E2,7.62557E1,3.1432886E2,3.335486E1,5.7271843E1,1.0066223E2,4.8327915E1,5.818506E0,1.0593133E0,3.0699148E0,8.674322E1,4.6136265E1,7.42611E1,1.9946003E0,8.8459114E1,2.2586974E2,3.0732706E1,2.6221507E0,5.6467266E0,5.1625114E1,8.9462105E1,1.1200132E1,4.7077766E1,1.2501477E0,1.08606E0,4.7324457E0,4.1459766E1,4.5283455E1,3.588909E1,1.0247171E1,2.8886396E1,4.5374702E1,4.5888477E1,4.257064E1,3.312472E1,1.9274501E2,2.9205172E0,2.781219E1,3.9593625E0,1.6873642E0,4.451731E0,4.7173386E1,2.6351753E1,6.3110348E1,1.0947776E0,1.0105354E1],"tree_param":{"num_deleted":"0","num_feature":"36","num_nodes":"55","size_leaf_vector":"1"}},{"base_weights":[4.150672E-3,4.9557504E-1,-2.1257474E-1,3.0062598E-1,8.503613E-1,-3.566164E-1,7.453033E-2,4.3100608E-3,5.8586955E-1,8.772876E-1,-4.9718913E-2,-4.9650905E-1,-5.2340355E-2,-3.4458527E-1,2.623534E-1,2.2666755E-1,-4.0373814E-1,6.3375133E-1,-1.1565198E-1,9.2506385E-1,2.4842437E-1,7.502782E-1,-5.430114E-1,-2.4715444E-1,5.823373E-1,-9.304571E-2,-8.4086514E-1,3.4826314E-1,-5.6202084E-1,4.01001E-2,-4.60883E-2,-7.3939465E-2,4.0424887E-2,9.070646E-2,3.0944556E-2,9.6776016E-2,1.6274162E-2,6.210614E-2,-7.2532736E-2,-2.058974E-2,1.3049024E-1,2.3066565E-2,-5.9706908E-2,-6.984288E-2,3.3845715E-3,1.4693867E-1,3.437678E-2,6.688853E-2,-3.1172259E-2,3.130229E-2,-9.941181E-2,-7.4955844E-3,5.1720884E-2,6.0449548E-2,-8.5606806E-2],"categories":[],"categories_nodes":[],"categories_segments":[],"categories_sizes":[],"default_left":[0,0,0,0,0,0,0,0,0,0,0,0,0,0,0,0,0,0,0,0,0,0,0,0,0,0,0,0,0,0,0,0,0,0,0,0,0,0,0,0,0,0,0,0,0,0,0,0,0,0,0,0,0,0,0],"id":18,"left_children":[1,3,5,7,9,11,13,15,17,19,-1,21,23,25,27,29,31,33,-1,35,37,39,41,43,45,47,49,51,53,-1,-1,-1,-1,-1,-1,-1,-1,-1,-1,-1,-1,-1,-1,-1,-1,-1,-1,-1,-1,-1,-1,-1,-1,-1,-1],"loss_changes":[8.057152E1,1.5757725E1,2.173792E1,1.2757508E1,3.3954391E0,1.4862507E1,1.3962646E1,6.90132E0,7.1497E0,2.183403E0,0E0,1.4292904E1,1.3903127E1,6.7834306E0,8.854206E0,6.084599E0,7.5760527E0,6.4115887E0,0E0,2.2602692E0,3.0044136E0,5.05812E0,9.81823E0,1.0909786E1,5.0887585E0,6.4736385E0,3.5586576E0,7.9994307E0,4.606466E0,0E0,0E0,0E0,0E0,0E0,0E0,0E0,0E0,0E0,0E0,0E0,0E0,0E0,0E0,0E0,0E0,0E0,0E0,0E0,0E0,0E0,0E0,0E0,0E0,0E0,0E0],"parents":[2147483647,0,0,1,1,2,2,3,3,4,4,5,5,6,6,7,7,8,8,9,9,11,11,12,12,13,13,14,14,15,15,16,16,17,17,19,19,20,20,21,21,22,22,23,23,24,24,25,25,26,26,27,27,28,28],"right_children":[2,4,6,8,10,12,14,16,18,20,-1,22,24,26,28,30,32,34,-1,36,38,40,42,44,46,48,50,52,54,-1,-1,-1,-1,-1,-1,-1,-1,-1,-1,-1,-1,-1,-1,-1,-1,-1,-1,-1,-1,-1,-1,-1,-1,-1,-1],"split_conditions":[-4.72202E-1,2.4346669E-1,1.365865E0,1.2607858E-1,4.238841E0,3.367014E-1,-6.615589E-1,6.331595E-1,7.0996695E0,1.7541919E0,-4.9718913E-2,-3.7471348E-1,6.6464984E-1,4.9517637E-1,1.7541919E0,-5.486067E-1,1.9995553E0,1.8328367E-1,-1.1565198E-1,1.4676754E0,-8.0635977E-1,4.421686E-1,3.6397803E-1,-3.838771E-1,-1.0473566E0,-2.6364478E-1,1.961135E-1,-5.2113473E-1,2.1457888E-1,4.01001E-2,-4.60883E-2,-7.3939465E-2,4.0424887E-2,9.070646E-2,3.0944556E-2,9.6776016E-2,1.6274162E-2,6.210614E-2,-7.2532736E-2,-2.058974E-2,1.3049024E-1,2.3066565E-2,-5.9706908E-2,-6.984288E-2,3.3845715E-3,1.4693867E-1,3.437678E-2,6.688853E-2,-3.1172259E-2,3.130229E-2,-9.941181E-2,-7.4955844E-3,5.1720884E-2,6.0449548E-2,-8.5606806E-2],"split_indices":[30,19,17,3,10,3,1,12,26,18,0,10,23,25,18,24,6,23,0,6,30,31,16,12,6,29,30,34,31,0,0,0,0,0,0,0,0,0,0,0,0,0,0,0,0,0,0,0,0,0,0,0,0,0,0],"split_type":[0,0,0,0,0,0,0,0,0,0,0,0,0,0,0,0,0,0,0,0,0,0,0,0,0,0,0,0,0,0,0,0,0,0,0,0,0,0,0,0,0,0,0,0,0,0,0,0,0,0,0,0,0,0,0],"sum_hessian":[7.545214E2,2.3052342E2,5.23998E2,1.4996663E2,8.055679E1,3.4877444E2,1.7522356E2,7.40536E1,7.591304E1,7.93208E1,1.2359878E0,2.384938E2,1.1028063E2,5.3966343E1,1.2125721E2,4.822104E1,2.5832558E1,7.450196E1,1.411078E0,7.328236E1,6.038444E0,8.031264E0,2.3046255E2,8.484735E1,2.5433283E1,3.6602062E1,1.7364277E1,1.10336365E2,1.092084E1,3.8799828E1,9.421211E0,1.8310743E1,7.5218134E0,3.9454323E1,3.5047638E1,6.914044E1,4.1419168E0,4.6291504E0,1.4092939E0,3.179151E0,4.852113E0,1.4837689E1,2.1562486E2,3.1988945E1,5.2858406E1,4.2970037E0,2.113628E1,7.7031975E0,2.8898867E1,1.9136083E0,1.5450669E1,3.1637892E1,7.869848E1,1.9860786E0,8.934762E0],"tree_param":{"num_deleted":"0","num_feature":"36","num_nodes":"55","size_leaf_vector":"1"}},{"base_weights":[4.1756E-3,3.451944E-1,-2.7461082E-1,8.977483E-1,2.2056575E-1,-3.5187006E-1,2.8625107E-1,9.659727E-1,2.8179586E-1,8.841824E-3,5.019844E-1,-5.886825E-1,-2.0804039E-1,-1.0377496E-1,6.870998E-1,9.910315E-1,3.796728E-1,-3.942718E-2,6.023241E-1,-2.3981182E-1,2.7965724E-1,6.180815E-1,-2.958303E-1,-9.5926315E-1,-4.518491E-1,-3.342356E-1,3.317932E-1,5.08346E-1,-5.344678E-1,1.0170121E0,-7.583266E-2,5.241294E-2,1.03163145E-1,-2.958943E-2,7.406202E-2,8.804287E-2,-2.458347E-2,2.8964674E-2,-4.099871E-2,4.7430392E-2,-5.3045552E-2,7.3352724E-2,-1.5820887E-2,-6.901267E-2,5.944546E-2,-1.0657306E-1,1.2101104E-1,-2.2930404E-2,-9.456025E-2,-3.6330763E-2,1.4319572E-1,3.860198E-3,1.1518153E-1,7.812648E-2,-7.580075E-2,-8.4364556E-2,4.2957153E-2,1.397922E-1,4.781444E-2,7.539969E-2,-4.172489E-2],"categories":[],"categories_nodes":[],"categories_segments":[],"categories_sizes":[],"default_left":[0,0,0,0,0,0,0,0,0,0,0,0,0,0,0,0,0,0,0,0,0,0,0,0,0,0,0,0,0,0,0,0,0,0,0,0,0,0,0,0,0,0,0,0,0,0,0,0,0,0,0,0,0,0,0,0,0,0,0,0,0],"id":19,"left_children":[1,3,5,7,9,11,13,15,17,19,21,23,25,27,29,31,33,-1,35,37,39,41,43,45,47,49,51,53,55,57,59,-1,-1,-1,-1,-1,-1,-1,-1,-1,-1,-1,-1,-1,-1,-1,-1,-1,-1,-1,-1,-1,-1,-1,-1,-1,-1,-1,-1,-1,-1],"loss_changes":[7.032877E1,2.2715149E1,1.7737593E1,2.2874107E0,1.6251038E1,1.2077675E1,7.861871E0,4.233322E-1,1.8596141E0,1.0619574E1,1.1030386E1,6.4019203E0,1.5397331E1,7.1591806E0,6.295518E0,4.3690872E-1,1.1583884E0,0E0,1.5075641E0,7.5281334E0,1.2152493E1,9.307419E0,5.8701344E0,9.47987E0,1.0808601E1,9.884466E0,1.0298047E1,4.4984493E0,5.0784717E0,2.8860168E0,2.6912973E0,0E0,0E0,0E0,0E0,0E0,0E0,0E0,0E0,0E0,0E0,0E0,0E0,0E0,0E0,0E0,0E0,0E0,0E0,0E0,0E0,0E0,0E0,0E0,0E0,0E0,0E0,0E0,0E0,0E0,0E0],"parents":[2147483647,0,0,1,1,2,2,3,3,4,4,5,5,6,6,7,7,8,8,9,9,10,10,11,11,12,12,13,13,14,14,15,15,16,16,18,18,19,19,20,20,21,21,22,22,23,23,24,24,25,25,26,26,27,27,28,28,29,29,30,30],"right_children":[2,4,6,8,10,12,14,16,18,20,22,24,26,28,30,32,34,-1,36,38,40,42,44,46,48,50,52,54,56,58,60,-1,-1,-1,-1,-1,-1,-1,-1,-1,-1,-1,-1,-1,-1,-1,-1,-1,-1,-1,-1,-1,-1,-1,-1,-1,-1,-1,-1,-1,-1],"split_conditions":[1.0554394E-1,3.6397803E-1,2.7511828E0,1.5518136E0,-9.393448E-2,-5.739941E-2,3.0599838E-1,3.3489194E0,-9.789304E-2,-2.9547223E-1,4.883476E-1,-3.838771E-1,4.4399047E-1,3.6397803E-1,1.7560796E-1,-5.649417E-1,8.699844E-1,-3.942718E-2,9.7153746E-2,-1.3113909E0,-2.2153138E-1,1.7541919E0,1.146016E0,1.0877613E0,7.774688E-1,1.2619938E0,4.1325974E-1,7.0784706E-1,4.4399047E-1,1.3448371E-1,3.6397803E-1,5.241294E-2,1.03163145E-1,-2.958943E-2,7.406202E-2,8.804287E-2,-2.458347E-2,2.8964674E-2,-4.099871E-2,4.7430392E-2,-5.3045552E-2,7.3352724E-2,-1.5820887E-2,-6.901267E-2,5.944546E-2,-1.0657306E-1,1.2101104E-1,-2.2930404E-2,-9.456025E-2,-3.6330763E-2,1.4319572E-1,3.860198E-3,1.1518153E-1,7.812648E-2,-7.580075E-2,-8.4364556E-2,4.2957153E-2,1.397922E-1,4.781444E-2,7.539969E-2,-4.172489E-2],"split_indices":[24,16,15,35,28,23,33,5,22,19,25,12,3,16,8,19,33,0,12,9,24,18,23,6,12,8,12,6,3,3,16,0,0,0,0,0,0,0,0,0,0,0,0,0,0,0,0,0,0,0,0,0,0,0,0,0,0,0,0,0,0],"split_type":[0,0,0,0,0,0,0,0,0,0,0,0,0,0,0,0,0,0,0,0,0,0,0,0,0,0,0,0,0,0,0,0,0,0,0,0,0,0,0,0,0,0,0,0,0,0,0,0,0,0,0,0,0,0,0,0,0,0,0,0,0],"sum_hessian":[7.377497E2,3.3173035E2,4.0601938E2,5.990997E1,2.7182037E2,3.571889E2,4.883047E1,5.3424305E1,6.485666E0,1.5570667E2,1.1611371E2,1.3379897E2,2.2338995E2,2.5124971E1,2.37055E1,5.0572487E1,2.8518164E0,2.0119443E0,4.4737215E0,8.123442E1,7.447224E1,1.0156008E2,1.4553629E1,3.446048E1,9.933848E1,1.8137202E2,4.201792E1,1.0302408E1,1.4822564E1,1.6316696E1,7.388804E0,5.158542E0,4.5413948E1,1.0558548E0,1.7959617E0,3.3403878E0,1.1333337E0,1.958827E1,6.164615E1,6.037935E1,1.4092891E1,8.845989E1,1.3100193E1,1.0242274E1,4.311354E0,3.3333305E1,1.1271768E0,6.948468E1,2.98538E1,1.7921637E2,2.1556544E0,3.1722805E1,1.0295115E1,8.790894E0,1.5115147E0,1.1317732E1,3.5048323E0,8.625439E0,7.691257E0,1.8015665E0,5.5872374E0],"tree_param":{"num_deleted":"0","num_feature":"36","num_nodes":"61","size_leaf_vector":"1"}},{"base_weights":[4.7109746E-3,4.1101533E-1,-2.0339814E-1,8.7162805E-1,2.9299727E-1,-3.4452078E-1,9.8413125E-2,9.604294E-1,5.2469134E-1,1.2282704E-1,5.9192175E-1,-4.0767208E-1,2.2674762E-1,1.8433523E-1,-6.833473E-1,1.0237499E-1,4.3278167E-1,7.0232964E-1,-5.2434452E-2,-1.4378309E-1,2.9817417E-1,6.6662955E-1,-1.2804037E-1,-1.409385E-1,-5.136931E-1,3.5984293E-1,-1.02901675E-1,4.229264E-1,-8.9222506E-2,-8.9240193E-1,6.7278124E-2,-3.068919E-2,8.487152E-2,9.564509E-3,8.564109E-2,-2.3562329E-2,9.15416E-2,5.5024363E-2,-8.094367E-3,3.2270458E-2,8.844855E-2,-3.9151315E-2,1.0183507E-2,-5.511703E-3,-5.9750196E-2,-7.729363E-2,4.99046E-2,-5.3887215E-2,5.468483E-2,6.0756266E-2,-2.3439007E-2,2.8835962E-2,-1.2121674E-1],"categories":[],"categories_nodes":[],"categories_segments":[],"categories_sizes":[],"default_left":[0,0,0,0,0,0,0,0,0,0,0,0,0,0,0,0,0,0,0,0,0,0,0,0,0,0,0,0,0,0,0,0,0,0,0,0,0,0,0,0,0,0,0,0,0,0,0,0,0,0,0,0,0],"id":20,"left_children":[1,3,5,7,9,11,13,15,17,19,21,23,25,27,29,-1,31,33,-1,35,37,39,-1,41,43,45,-1,47,49,51,-1,-1,-1,-1,-1,-1,-1,-1,-1,-1,-1,-1,-1,-1,-1,-1,-1,-1,-1,-1,-1,-1,-1],"loss_changes":[6.122523E1,1.3076633E1,2.0428946E1,1.0215569E0,9.934874E0,1.1871403E1,1.0425966E1,8.339119E-1,2.659448E0,5.9627066E0,1.0799782E1,8.251854E0,5.909701E0,9.106404E0,4.9655256E0,0E0,2.0533285E0,9.4094133E-1,0E0,5.168556E0,7.375666E0,4.887169E0,0E0,5.216813E0,8.04781E0,5.2279453E0,0E0,9.160998E0,6.7733035E0,5.548768E0,0E0,0E0,0E0,0E0,0E0,0E0,0E0,0E0,0E0,0E0,0E0,0E0,0E0,0E0,0E0,0E0,0E0,0E0,0E0,0E0,0E0,0E0,0E0],"parents":[2147483647,0,0,1,1,2,2,3,3,4,4,5,5,6,6,7,7,8,8,9,9,10,10,11,11,12,12,13,13,14,14,16,16,17,17,19,19,20,20,21,21,23,23,24,24,25,25,27,27,28,28,29,29],"right_children":[2,4,6,8,10,12,14,16,18,20,22,24,26,28,30,-1,32,34,-1,36,38,40,-1,42,44,46,-1,48,50,52,-1,-1,-1,-1,-1,-1,-1,-1,-1,-1,-1,-1,-1,-1,-1,-1,-1,-1,-1,-1,-1,-1,-1],"split_conditions":[1.8274815E-1,3.6397803E-1,-2.6002776E-2,3.3766916E-1,1.8738662E-1,2.7511828E0,1.7541919E0,1.3920752E0,-8.0635977E-1,-6.615589E-1,3.7449627E0,-2.3706448E-1,4.238841E0,-1.0781362E-1,1.7347629E0,1.0237499E-1,-9.7468287E-1,-4.2569387E-1,-5.2434452E-2,1.259193E0,-1.1405175E0,-2.0394705E-1,-1.2804037E-1,-6.615589E-1,-1.3804425E-1,9.641339E-2,-1.02901675E-1,-2.980825E-1,-2.2153138E-1,-3.40596E-2,6.7278124E-2,-3.068919E-2,8.487152E-2,9.564509E-3,8.564109E-2,-2.3562329E-2,9.15416E-2,5.5024363E-2,-8.094367E-3,3.2270458E-2,8.844855E-2,-3.9151315E-2,1.0183507E-2,-5.511703E-3,-5.9750196E-2,-7.729363E-2,4.99046E-2,-5.3887215E-2,5.468483E-2,6.0756266E-2,-2.3439007E-2,2.8835962E-2,-1.2121674E-1],"split_indices":[31,16,19,12,3,15,18,1,30,1,32,11,10,10,33,0,8,3,0,26,30,6,0,1,30,3,0,23,24,1,0,0,0,0,0,0,0,0,0,0,0,0,0,0,0,0,0,0,0,0,0,0,0],"split_type":[0,0,0,0,0,0,0,0,0,0,0,0,0,0,0,0,0,0,0,0,0,0,0,0,0,0,0,0,0,0,0,0,0,0,0,0,0,0,0,0,0,0,0,0,0,0,0,0,0,0,0,0,0],"sum_hessian":[7.2209357E2,2.4425137E2,4.7784216E2,4.851533E1,1.9573605E2,3.25501E2,1.5234114E2,3.72202E1,1.1295134E1,1.2562931E2,7.010674E1,2.933579E2,3.2143105E1,1.3794412E2,1.4397026E1,3.2392685E1,4.827516E0,9.942091E0,1.3530426E0,4.9915016E1,7.5714294E1,6.803599E1,2.0707545E0,8.410105E1,2.0925685E2,2.9707886E1,2.4352167E0,7.338942E1,6.4554695E1,1.2770354E1,1.6266716E0,1.8319094E0,2.9956064E0,2.341872E0,7.600219E0,4.6647854E1,3.2671597E0,4.5206097E1,3.0508196E1,2.7346245E1,4.068974E1,4.1084114E1,4.3016937E1,3.259034E1,1.7666652E2,2.752944E0,2.6954943E1,7.9943285E0,6.5395096E1,1.058118E1,5.397352E1,2.7423196E0,1.0028035E1],"tree_param":{"num_deleted":"0","num_feature":"36","num_nodes":"53","size_leaf_vector":"1"}},{"base_weights":[4.532478E-3,3.823201E-1,-1.8717714E-1,8.464184E-1,2.6927456E-1,4.88472E-1,-2.4664004E-1,9.386414E-1,4.9734592E-1,-1.39117995E-2,4.2492706E-1,7.098585E-1,5.7473416E-3,-3.8454372E-1,1.51046645E-2,1.005367E0,4.1089818E-1,6.754514E-1,-4.854303E-2,-3.2902253E-1,2.7030227E-1,4.5997494E-1,-8.875913E-2,8.172389E-1,-9.0314634E-2,-6.670818E-1,4.8070848E-1,6.3471985E-1,-4.2634594E-1,-2.0716271E-1,2.6568356E-1,5.583767E-2,1.05528034E-1,-2.8270131E-2,8.267228E-2,8.922415E-3,8.335518E-2,6.738093E-2,-4.780673E-2,7.506971E-2,-1.4909876E-2,5.524217E-2,-4.047788E-3,9.437329E-2,2.8431272E-2,-1.1046242E-1,3.0320516E-2,-2.4921695E-2,7.1779676E-2,-2.698302E-2,1.05700076E-1,-5.308829E-2,-1.7468182E-2,3.0155903E-2,-4.3791313E-2,8.252107E-2,3.3047094E-3],"categories":[],"categories_nodes":[],"categories_segments":[],"categories_sizes":[],"default_left":[0,0,0,0,0,0,0,0,0,0,0,0,0,0,0,0,0,0,0,0,0,0,0,0,0,0,0,0,0,0,0,0,0,0,0,0,0,0,0,0,0,0,0,0,0,0,0,0,0,0,0,0,0,0,0,0,0],"id":21,"left_children":[1,3,5,7,9,11,13,15,17,19,21,23,25,27,29,31,33,35,-1,37,39,41,-1,43,-1,45,47,49,51,53,55,-1,-1,-1,-1,-1,-1,-1,-1,-1,-1,-1,-1,-1,-1,-1,-1,-1,-1,-1,-1,-1,-1,-1,-1,-1,-1],"loss_changes":[5.139334E1,1.23041725E1,1.9033163E1,1.0243568E0,8.537265E0,4.101163E0,1.5647142E1,8.374748E-1,2.3946044E0,6.323873E0,6.155182E0,5.298173E0,4.5026145E0,1.2364441E1,8.436581E0,9.873581E-2,1.8711663E0,8.9081764E-1,0E0,5.324133E0,7.597369E0,5.6824284E0,0E0,1.4310951E0,0E0,2.8116903E0,1.6070006E0,4.7100797E0,7.0962067E0,9.559633E0,9.237609E0,0E0,0E0,0E0,0E0,0E0,0E0,0E0,0E0,0E0,0E0,0E0,0E0,0E0,0E0,0E0,0E0,0E0,0E0,0E0,0E0,0E0,0E0,0E0,0E0,0E0,0E0],"parents":[2147483647,0,0,1,1,2,2,3,3,4,4,5,5,6,6,7,7,8,8,9,9,10,10,11,11,12,12,13,13,14,14,15,15,16,16,17,17,19,19,20,20,21,21,23,23,25,25,26,26,27,27,28,28,29,29,30,30],"right_children":[2,4,6,8,10,12,14,16,18,20,22,24,26,28,30,32,34,36,-1,38,40,42,-1,44,-1,46,48,50,52,54,56,-1,-1,-1,-1,-1,-1,-1,-1,-1,-1,-1,-1,-1,-1,-1,-1,-1,-1,-1,-1,-1,-1,-1,-1,-1,-1],"split_conditions":[1.8274815E-1,3.6397803E-1,3.6397803E-1,3.3766916E-1,-6.615589E-1,8.90924E-1,1.365865E0,1.3920752E0,-8.0635977E-1,1.2607858E-1,4.238841E0,2.8508928E0,2.7511828E0,-3.7471348E-1,-1.6073751E-1,-5.649417E-1,-9.7468287E-1,-4.2569387E-1,-4.854303E-2,-3.5612378E-1,1.8328367E-1,6.318642E-1,-8.875913E-2,5.3027123E-1,-9.0314634E-2,-7.831875E-2,-4.732114E-1,-8.646454E-3,3.367014E-1,-5.649417E-1,3.1086683E-1,5.583767E-2,1.05528034E-1,-2.8270131E-2,8.267228E-2,8.922415E-3,8.335518E-2,6.738093E-2,-4.780673E-2,7.506971E-2,-1.4909876E-2,5.524217E-2,-4.047788E-3,9.437329E-2,2.8431272E-2,-1.1046242E-1,3.0320516E-2,-2.4921695E-2,7.1779676E-2,-2.698302E-2,1.05700076E-1,-5.308829E-2,-1.7468182E-2,3.0155903E-2,-4.3791313E-2,8.252107E-2,3.3047094E-3],"split_indices":[31,16,16,12,1,35,17,1,30,3,10,7,15,10,19,19,8,3,0,11,23,6,0,30,0,11,12,29,3,19,31,0,0,0,0,0,0,0,0,0,0,0,0,0,0,0,0,0,0,0,0,0,0,0,0,0,0],"split_type":[0,0,0,0,0,0,0,0,0,0,0,0,0,0,0,0,0,0,0,0,0,0,0,0,0,0,0,0,0,0,0,0,0,0,0,0,0,0,0,0,0,0,0,0,0,0,0,0,0,0,0,0,0,0,0,0,0],"sum_hessian":[7.0761456E2,2.378693E2,4.6974527E2,4.532091E1,1.9254839E2,3.7413895E1,4.3233136E2,3.451364E1,1.0807273E1,6.861829E1,1.2393009E2,2.5327644E1,1.2086251E1,2.8284274E2,1.4948862E2,2.983624E1,4.6773977E0,9.413927E0,1.3933462E0,3.2465664E1,3.6152634E1,1.2133953E2,2.5905566E0,2.4209332E1,1.1183124E0,4.833966E0,7.252285E0,1.0584208E1,2.7225854E2,7.931142E1,7.017719E1,4.22117E0,2.5615072E1,1.8731345E0,2.8042634E0,2.331862E0,7.0820646E0,3.7452557E0,2.8720407E1,1.64828E1,1.9669834E1,1.02332245E2,1.9007288E1,1.894237E1,5.2669616E0,3.2361853E0,1.5977806E0,1.7655416E0,5.4867435E0,3.4834573E0,7.1007504E0,1.9157294E2,8.068561E1,2.4653173E1,5.4658245E1,1.986105E1,5.0316147E1],"tree_param":{"num_deleted":"0","num_feature":"36","num_nodes":"57","size_leaf_vector":"1"}},{"base_weights":[4.872957E-3,2.8973594E-1,-2.2513583E-1,8.2726663E-1,1.8461275E-1,-2.9039276E-1,2.4415377E-1,9.0575176E-1,1.8216936E-1,-6.31003E-3,4.4499063E-1,-4.532295E-1,-1.1050313E-1,3.564918E-1,-9.426857E-1,4.280284E-1,9.486591E-1,6.0910106E-1,-3.528888E-1,1.8294644E-1,-2.9178932E-1,5.5321866E-1,-2.727296E-1,-5.1763886E-1,8.586268E-1,-2.278688E-1,3.7545314E-1,5.3424123E-3,6.698964E-1,-1.2593344E-1,-2.6409496E-3,-1.3730012E-2,7.9705976E-2,9.8377526E-2,3.2120753E-2,7.593449E-2,1.0687823E-2,5.715358E-2,-9.327174E-2,-1.3418955E-2,4.3516044E-2,1.0274983E-2,-6.2286384E-2,3.0102415E-2,9.053757E-2,-6.411788E-2,5.5700816E-2,-9.337081E-2,-3.289055E-2,1.514E-1,-8.300833E-3,-6.312593E-2,-5.416404E-3,1.0169657E-2,1.4720127E-1,-3.3303875E-2,6.6783994E-2,9.69274E-2,-5.395424E-3],"categories":[],"categories_nodes":[],"categories_segments":[],"categories_sizes":[],"default_left":[0,0,0,0,0,0,0,0,0,0,0,0,0,0,0,0,0,0,0,0,0,0,0,0,0,0,0,0,0,0,0,0,0,0,0,0,0,0,0,0,0,0,0,0,0,0,0,0,0,0,0,0,0,0,0,0,0,0,0],"id":22,"left_children":[1,3,5,7,9,11,13,15,17,19,21,23,25,27,29,31,33,35,37,39,41,43,45,47,49,51,53,55,57,-1,-1,-1,-1,-1,-1,-1,-1,-1,-1,-1,-1,-1,-1,-1,-1,-1,-1,-1,-1,-1,-1,-1,-1,-1,-1,-1,-1,-1,-1],"loss_changes":[4.5611073E1,1.7419493E1,1.1866165E1,2.395935E0,1.2997225E1,9.868292E0,6.677515E0,5.131302E-1,1.7541608E0,8.254793E0,8.741735E0,1.5433964E1,9.33638E0,4.8580704E0,1.2396078E0,1.2605852E0,5.7250977E-1,2.2931218E-1,2.4753377E0,7.408862E0,8.0189E0,8.292032E0,4.992351E0,1.3020428E1,5.481325E0,9.163767E0,9.435448E0,5.1187716E0,5.108988E0,0E0,0E0,0E0,0E0,0E0,0E0,0E0,0E0,0E0,0E0,0E0,0E0,0E0,0E0,0E0,0E0,0E0,0E0,0E0,0E0,0E0,0E0,0E0,0E0,0E0,0E0,0E0,0E0,0E0,0E0],"parents":[2147483647,0,0,1,1,2,2,3,3,4,4,5,5,6,6,7,7,8,8,9,9,10,10,11,11,12,12,13,13,14,14,15,15,16,16,17,17,18,18,19,19,20,20,21,21,22,22,23,23,24,24,25,25,26,26,27,27,28,28],"right_children":[2,4,6,8,10,12,14,16,18,20,22,24,26,28,30,32,34,36,38,40,42,44,46,48,50,52,54,56,58,-1,-1,-1,-1,-1,-1,-1,-1,-1,-1,-1,-1,-1,-1,-1,-1,-1,-1,-1,-1,-1,-1,-1,-1,-1,-1,-1,-1,-1,-1],"split_conditions":[1.0554394E-1,3.6397803E-1,2.7511828E0,1.5518136E0,-9.393448E-2,2.4635188E-1,1.8484384E0,-5.649417E-1,-2.980825E-1,-4.72202E-1,4.883476E-1,9.053329E-1,8.90924E-1,3.0599838E-1,5.431516E-1,1.2607858E-1,1.4491206E0,-1.5769161E-1,9.641339E-2,-6.615589E-1,2.846065E-1,1.365865E0,1.146016E0,-3.2203028E-1,-1.9737805E-1,1.2063996E-1,7.0784706E-1,3.7820143E-1,1.7560796E-1,-1.2593344E-1,-2.6409496E-3,-1.3730012E-2,7.9705976E-2,9.8377526E-2,3.2120753E-2,7.593449E-2,1.0687823E-2,5.715358E-2,-9.327174E-2,-1.3418955E-2,4.3516044E-2,1.0274983E-2,-6.2286384E-2,3.0102415E-2,9.053757E-2,-6.411788E-2,5.5700816E-2,-9.337081E-2,-3.289055E-2,1.514E-1,-8.300833E-3,-6.312593E-2,-5.416404E-3,1.0169657E-2,1.4720127E-1,-3.3303875E-2,6.6783994E-2,9.69274E-2,-5.395424E-3],"split_indices":[24,16,15,35,28,29,1,19,23,30,25,23,35,33,31,3,1,11,3,1,31,17,23,12,11,3,6,19,8,0,0,0,0,0,0,0,0,0,0,0,0,0,0,0,0,0,0,0,0,0,0,0,0,0,0,0,0,0,0],"split_type":[0,0,0,0,0,0,0,0,0,0,0,0,0,0,0,0,0,0,0,0,0,0,0,0,0,0,0,0,0,0,0,0,0,0,0,0,0,0,0,0,0,0,0,0,0,0,0,0,0,0,0,0,0,0,0,0,0,0,0],"sum_hessian":[6.9413367E2,3.099745E2,3.8415918E2,4.958091E1,2.603936E2,3.3759607E2,4.6563103E1,4.384277E1,5.7381425E0,1.5079701E2,1.0959656E2,1.7639929E2,1.6119678E2,4.317599E1,3.3871114E0,4.5178175E0,3.932495E1,3.1145828E0,2.6235597E0,9.089679E1,5.9900227E1,9.543475E1,1.4161804E1,1.6872087E2,7.6784253E0,1.3026656E2,3.0930218E1,2.08415E1,2.233449E1,2.2389615E0,1.1481497E0,2.0323513E0,2.4854665E0,3.6702934E1,2.622017E0,2.0033088E0,1.1112739E0,1.0167888E0,1.6067709E0,4.047329E1,5.0423504E1,2.7645239E1,3.2254986E1,5.669085E1,3.8743904E1,9.96434E0,4.1974635E0,5.14189E1,1.1730196E2,4.168989E0,3.5094364E0,3.8417175E1,9.184938E1,2.5625534E1,5.3046846E0,1.412449E1,6.7170095E0,1.5559981E1,6.774509E0],"tree_param":{"num_deleted":"0","num_feature":"36","num_nodes":"59","size_leaf_vector":"1"}},{"base_weights":[5.142429E-3,4.4407544E-1,-1.2428309E-1,-2.1927888E-2,6.38224E-1,4.6710405E-1,-1.7775872E-1,-4.3872982E-1,1.794688E-1,8.346337E-1,2.8480327E-1,6.7384034E-1,-4.7332413E-2,-1.5125273E-1,-1.2795141E-1,5.8009315E-1,-7.895173E-1,-1.5247375E-1,7.9851204E-1,1.0607864E-1,6.555967E-1,-6.2307096E-1,4.326666E-1,8.7963563E-1,1.2682682E-1,-2.422908E-1,7.717849E-2,-2.7276906E-1,7.401205E-2,-1.4536823E-2,1.2259787E-1,1.9093806E-2,-1.2293126E-1,3.345858E-2,-5.295539E-2,1.1606027E-1,-9.048097E-2,8.0009274E-2,1.1535062E-2,8.245536E-2,-2.0092766E-1,1.6826972E-2,8.019489E-2,9.974694E-2,4.5866102E-2,-6.43607E-2,4.6263743E-2,-5.4027338E-2,2.751976E-2,6.877797E-2,-3.1370662E-2,4.0162917E-2,-1.3164188E-2],"categories":[],"categories_nodes":[],"categories_segments":[],"categories_sizes":[],"default_left":[0,0,0,0,0,0,0,0,0,0,0,0,0,0,0,0,0,0,0,0,0,0,0,0,0,0,0,0,0,0,0,0,0,0,0,0,0,0,0,0,0,0,0,0,0,0,0,0,0,0,0,0,0],"id":23,"left_children":[1,3,5,7,9,11,13,15,17,19,21,23,25,27,-1,29,31,33,35,-1,37,39,41,43,45,47,-1,49,51,-1,-1,-1,-1,-1,-1,-1,-1,-1,-1,-1,-1,-1,-1,-1,-1,-1,-1,-1,-1,-1,-1,-1,-1],"loss_changes":[3.880994E1,1.4088673E1,1.6769104E1,4.00039E0,7.387417E0,4.7145367E0,1.3958207E1,6.0011864E0,6.7400923E0,2.1424751E0,5.74095E0,3.431469E0,2.3518257E0,1.3004633E1,0E0,2.309701E0,5.392403E0,4.1819906E0,8.08276E0,0E0,3.1659298E0,1.3934225E1,3.344792E0,6.68581E-1,2.826047E0,1.9545481E0,0E0,1.2340576E1,1.1304845E1,0E0,0E0,0E0,0E0,0E0,0E0,0E0,0E0,0E0,0E0,0E0,0E0,0E0,0E0,0E0,0E0,0E0,0E0,0E0,0E0,0E0,0E0,0E0,0E0],"parents":[2147483647,0,0,1,1,2,2,3,3,4,4,5,5,6,6,7,7,8,8,9,9,10,10,11,11,12,12,13,13,15,15,16,16,17,17,18,18,20,20,21,21,22,22,23,23,24,24,25,25,27,27,28,28],"right_children":[2,4,6,8,10,12,14,16,18,20,22,24,26,28,-1,30,32,34,36,-1,38,40,42,44,46,48,-1,50,52,-1,-1,-1,-1,-1,-1,-1,-1,-1,-1,-1,-1,-1,-1,-1,-1,-1,-1,-1,-1,-1,-1,-1,-1],"split_conditions":[-8.0635977E-1,-1.3307879E0,3.6397803E-1,-5.649417E-1,-8.646454E-3,4.0391567E-1,4.238841E0,-1.3113909E0,6.8684834E-1,-7.7364147E-1,-1.1002597E0,8.90924E-1,9.9906826E-1,1.365865E0,-1.2795141E-1,1.795365E0,-6.6591597E-1,3.159976E-2,1.7541919E0,1.0607864E-1,4.495054E-1,-4.732114E-1,1.7560796E-1,1.7961618E-1,-6.8623936E-1,1.365865E0,7.717849E-2,-3.7471348E-1,1.0554394E-1,-1.4536823E-2,1.2259787E-1,1.9093806E-2,-1.2293126E-1,3.345858E-2,-5.295539E-2,1.1606027E-1,-9.048097E-2,8.0009274E-2,1.1535062E-2,8.245536E-2,-2.0092766E-1,1.6826972E-2,8.019489E-2,9.974694E-2,4.5866102E-2,-6.43607E-2,4.6263743E-2,-5.4027338E-2,2.751976E-2,6.877797E-2,-3.1370662E-2,4.0162917E-2,-1.3164188E-2],"split_indices":[30,22,16,19,29,6,10,9,8,29,34,35,34,17,0,34,34,6,18,0,6,12,8,12,12,17,0,10,24,0,0,0,0,0,0,0,0,0,0,0,0,0,0,0,0,0,0,0,0,0,0,0,0],"split_type":[0,0,0,0,0,0,0,0,0,0,0,0,0,0,0,0,0,0,0,0,0,0,0,0,0,0,0,0,0,0,0,0,0,0,0,0,0,0,0,0,0,0,0,0,0,0,0,0,0,0,0,0,0],"sum_hessian":[6.8119226E2,1.545662E2,5.2662604E2,4.57183E1,1.08847885E2,4.3029366E1,4.8359668E2,1.4510193E1,3.1208109E1,6.909018E1,3.9757706E1,3.047324E1,1.2556126E1,4.7334622E2,1.0250466E1,3.5489566E0,1.0961236E1,2.0805504E1,1.0402605E1,2.8352036E1,4.0738148E1,5.1182218E0,3.4639484E1,2.1700932E1,8.772308E0,1.0711002E1,1.845124E0,3.0734296E2,1.6600328E2,2.0364923E0,1.5124643E0,3.569481E0,7.391755E0,9.127965E0,1.1677539E1,8.841673E0,1.5609316E0,3.1761995E1,8.976151E0,2.7018416E0,2.4163804E0,2.1034777E1,1.3604707E1,1.58851385E1,5.8157935E0,2.384679E0,6.3876295E0,6.7691364E0,3.9418657E0,1.1917308E1,2.9542563E2,6.3651028E1,1.0235226E2],"tree_param":{"num_deleted":"0","num_feature":"36","num_nodes":"53","size_leaf_vector":"1"}},{"base_weights":[5.5506555E-3,2.2362119E-1,-2.2229303E-1,7.531736E-1,1.23571664E-1,4.69062E-2,-3.4279454E-1,7.862444E-1,-4.4183534E-2,1.5290241E-1,-1.0810553E0,-4.2882925E-1,3.7388515E-1,-2.509632E-1,-7.2598803E-1,5.67544E-1,9.5579416E-1,4.8893787E-2,4.4291794E-1,-1.5325005E-2,-1.2814929E-1,-7.394571E-1,2.746105E-1,2.1613748E-1,1.7972947E0,-3.2354617E-1,4.2095888E-1,2.1402137E-1,-9.604134E-1,6.766451E-2,-7.447859E-2,9.7981356E-2,1.6693363E-2,-9.523305E-3,3.4767184E-2,7.230839E-2,1.5911367E-2,-8.628642E-2,8.31967E-2,6.3056104E-2,-8.679199E-2,7.117761E-2,-1.3229839E-2,-6.545782E-2,2.556166E-1,-7.341121E-5,-4.4927176E-2,8.502775E-2,-5.4769408E-2,-6.581837E-2,9.7616605E-2,-1.053453E-1,-1.0139189E-2],"categories":[],"categories_nodes":[],"categories_segments":[],"categories_sizes":[],"default_left":[0,0,0,0,0,0,0,0,0,0,0,0,0,0,0,0,0,0,0,0,0,0,0,0,0,0,0,0,0,0,0,0,0,0,0,0,0,0,0,0,0,0,0,0,0,0,0,0,0,0,0,0,0],"id":24,"left_children":[1,3,5,7,9,11,13,15,-1,17,19,21,23,25,27,29,31,33,35,-1,-1,37,39,41,43,45,47,49,51,-1,-1,-1,-1,-1,-1,-1,-1,-1,-1,-1,-1,-1,-1,-1,-1,-1,-1,-1,-1,-1,-1,-1,-1],"loss_changes":[3.331564E1,1.805823E1,1.0653646E1,2.491169E0,1.0388843E1,1.6070463E1,7.793312E0,1.4281769E0,0E0,8.525343E0,1.1056976E0,9.408463E0,1.3342357E1,9.127448E0,9.744318E0,4.179323E0,3.7596893E-1,9.062315E0,5.8221645E0,0E0,0E0,6.4375973E0,6.0919824E0,9.797536E0,1.2770477E1,6.775528E0,8.120903E0,6.929744E0,2.676796E0,0E0,0E0,0E0,0E0,0E0,0E0,0E0,0E0,0E0,0E0,0E0,0E0,0E0,0E0,0E0,0E0,0E0,0E0,0E0,0E0,0E0,0E0,0E0,0E0],"parents":[2147483647,0,0,1,1,2,2,3,3,4,4,5,5,6,6,7,7,9,9,10,10,11,11,12,12,13,13,14,14,15,15,16,16,17,17,18,18,21,21,22,22,23,23,24,24,25,25,26,26,27,27,28,28],"right_children":[2,4,6,8,10,12,14,16,-1,18,20,22,24,26,28,30,32,34,36,-1,-1,38,40,42,44,46,48,50,52,-1,-1,-1,-1,-1,-1,-1,-1,-1,-1,-1,-1,-1,-1,-1,-1,-1,-1,-1,-1,-1,-1,-1,-1],"split_conditions":[1.961135E-1,3.6397803E-1,-1.0507916E0,2.2863386E0,4.3532267E0,-6.615589E-1,6.676027E-1,-2.6002776E-2,-4.4183534E-2,2.4346669E-1,-1.2027574E0,3.9306524E-1,9.358632E-1,6.1126536E-1,-2.6032782E-1,5.431516E-1,1.7541919E0,6.8684834E-1,-5.486067E-1,-1.5325005E-2,-1.2814929E-1,-1.1810912E0,6.365634E-1,4.1135067E-1,-2.7675092E-1,2.3687832E-1,3.4454104E-1,-5.739941E-2,1.0740086E0,6.766451E-2,-7.447859E-2,9.7981356E-2,1.6693363E-2,-9.523305E-3,3.4767184E-2,7.230839E-2,1.5911367E-2,-8.628642E-2,8.31967E-2,6.3056104E-2,-8.679199E-2,7.117761E-2,-1.3229839E-2,-6.545782E-2,2.556166E-1,-7.341121E-5,-4.4927176E-2,8.502775E-2,-5.4769408E-2,-6.581837E-2,9.7616605E-2,-1.053453E-1,-1.0139189E-2],"split_indices":[30,16,9,29,10,1,25,19,0,19,24,3,31,25,10,31,18,8,24,0,0,9,31,31,11,25,12,23,31,0,0,0,0,0,0,0,0,0,0,0,0,0,0,0,0,0,0,0,0,0,0,0,0],"split_type":[0,0,0,0,0,0,0,0,0,0,0,0,0,0,0,0,0,0,0,0,0,0,0,0,0,0,0,0,0,0,0,0,0,0,0,0,0,0,0,0,0,0,0,0,0,0,0,0,0,0,0,0,0],"sum_hessian":[6.6852325E2,3.4159714E2,3.2692612E2,5.3245564E1,2.883516E2,1.0127946E2,2.2564664E2,5.214457E1,1.1009943E0,2.8234988E2,6.0017004E0,4.1128452E1,6.0151005E1,1.8335985E2,4.228679E1,2.467016E1,2.7474411E1,2.0867949E2,7.3670395E1,1.3797157E0,4.6219845E0,2.8494524E1,1.2633929E1,5.5186836E1,4.9641705E0,1.6595174E2,1.7408112E1,8.458113E0,3.382868E1,2.3223831E1,1.4463285E0,2.6427673E1,1.0467372E0,1.4123212E2,6.744737E1,3.6293922E1,3.7376472E1,2.68378E1,1.6567245E0,9.974512E0,2.6594167E0,2.2350792E1,3.2836044E1,1.2057824E0,3.758388E0,4.6798386E1,1.1915336E2,1.2146737E1,5.261373E0,4.0078735E0,4.4502397E0,3.0318571E1,3.5101066E0],"tree_param":{"num_deleted":"0","num_feature":"36","num_nodes":"53","size_leaf_vector":"1"}},{"base_weights":[5.0281473E-3,3.9794743E-1,-1.0636119E-1,-3.305687E-2,5.899983E-1,-8.2064785E-2,-1.2275907E-1,7.7892387E-1,-1.2733595E-1,1.0445833E-1,4.260738E-1,5.0612763E-3,-3.9932647E-1,1.1550887E-1,-9.249236E-3,-3.4795278E-1,2.4690726E-1,7.144778E-1,1.6115502E-1,-6.750908E-2,4.5705268E-1,-5.6835157E-1,3.0841295E-2,1.0159221E-2,-7.358155E-2,5.567599E-2,-4.2629056E-2,7.777671E-2,-4.113769E-2,-1.12551086E-1,3.909259E-2,-3.0967018E-2,1.2080632E-2,5.5293556E-2,-7.170343E-2,-7.0986696E-2,-3.524877E-3,-5.1039647E-2,7.0606805E-2],"categories":[],"categories_nodes":[],"categories_segments":[],"categories_sizes":[],"default_left":[0,0,0,0,0,0,0,0,0,0,0,0,0,0,0,0,0,0,0,0,0,0,0,0,0,0,0,0,0,0,0,0,0,0,0,0,0,0,0],"id":25,"left_children":[1,3,5,7,9,11,-1,13,15,-1,17,19,21,-1,-1,23,25,27,29,31,33,35,37,-1,-1,-1,-1,-1,-1,-1,-1,-1,-1,-1,-1,-1,-1,-1,-1],"loss_changes":[2.889076E1,1.2087885E1,1.3910785E1,3.612022E0,7.0745125E0,1.3947319E1,0E0,1.7177105E0,3.5514278E0,0E0,5.6804285E0,1.304613E1,7.921612E0,0E0,0E0,4.751446E0,3.606464E0,2.8869934E0,1.2510418E1,1.5668636E1,6.590667E0,5.8665924E0,1.1913898E1,0E0,0E0,0E0,0E0,0E0,0E0,0E0,0E0,0E0,0E0,0E0,0E0,0E0,0E0,0E0,0E0],"parents":[2147483647,0,0,1,1,2,2,3,3,4,4,5,5,7,7,8,8,10,10,11,11,12,12,15,15,16,16,17,17,18,18,19,19,20,20,21,21,22,22],"right_children":[2,4,6,8,10,12,-1,14,16,-1,18,20,22,-1,-1,24,26,28,30,32,34,36,38,-1,-1,-1,-1,-1,-1,-1,-1,-1,-1,-1,-1,-1,-1,-1,-1],"split_conditions":[-8.0635977E-1,-1.3307879E0,4.238841E0,-3.5612378E-1,-7.7364147E-1,1.7541919E0,-1.2275907E-1,2.620786E-1,-7.831875E-2,1.0445833E-1,-4.732114E-1,2.7511828E0,3.9306524E-1,1.1550887E-1,-9.249236E-3,1.3688889E-1,5.506971E-1,1.4491206E0,-1.1002597E0,2.4635188E-1,1.8484384E0,8.90924E-1,2.1355242E-1,1.0159221E-2,-7.358155E-2,5.567599E-2,-4.2629056E-2,7.777671E-2,-4.113769E-2,-1.12551086E-1,3.909259E-2,-3.0967018E-2,1.2080632E-2,5.5293556E-2,-7.170343E-2,-7.0986696E-2,-3.524877E-3,-5.1039647E-2,7.0606805E-2],"split_indices":[30,22,10,11,29,18,0,12,11,0,12,15,3,0,0,35,12,1,34,29,1,35,2,0,0,0,0,0,0,0,0,0,0,0,0,0,0,0,0],"split_type":[0,0,0,0,0,0,0,0,0,0,0,0,0,0,0,0,0,0,0,0,0,0,0,0,0,0,0,0,0,0,0,0,0,0,0,0,0,0,0],